0.0180368 0.0171166 0.0143558 0.00883436 0.0103067 0.0090184 0.0167485 0.0103067 0.000368098 0.00331288 0.0110429 0.0160123 0.0161963 0.00754601 0.0171166 0.00809816 0.000552147 0.0176687 0.00110429 0.00441718 0.00239264 0.00717791 0.00257669 0.00607362 0.0161963 0.00496933 0.0132515 0.011411 0.0174847 0.0176687 0.00754601 0.00736195 0.0161962 0.00220853 0.000921118 0.00148057 0.0119738 0.0108589 0.011227 0.0121472 0.0139877 0.0176687 0.00811965 0.00302527 0.00593151 0.00202974 0.00809816 0.00441716 0.0150919 0.0156436 0.00938592 0.0126992 0.00865031 0.0097546 0.0152761 0.0126994 0.0132515 0.00736196 0.0138098 0.00337939 0.0106485 4.60334e-05 0.0160151 0.0158668 0.0156413 0.0103262 0.00110568 0.010494 0.00772929 0.00203242 0.00997841 0.0148582 0.0155017 0.0143888 0.00496777 0.00920061 0.0126975 0.00422848 0.0152719 0.00681161 0.0058914 0.000553237 0.00110433 0.0171166 0.0180368 0.000371722 0.00339324 0.0065357 0.0157483 0.0133207 0.0163674 0.00791833 0.0129429 0.00540158 0.00089811 0.0134362 0.00183876 0.011704 0.0186498 0.0014793 0.000508018 0.0116317 0.00606583 0.00348117 0.0110326 0.0132395 0.00717491 -9.66808e-06 0.0119474 0.0154493 0.00883039 0.00588929 0.0126994 0.0176964 0.0119381 0.00205304 0.00506946 0.0199659 0.0210136 0.0130367 0.0253673 0.0162171 -0.00918669 -0.0309955 -0.0447677 -0.032741 -0.0176464 -0.00645303 0.00292149 0.00481171 0.00531359 0.0125247 -0.0153898 -0.00797585 0.0032785 0.0111551 0.00107788 0.00715713 0.0106565 0.00257413 0.0167485 0.0119991 0.0144693 0.0034213 -0.00327714 0.0275749 0.00156217 0.0121554 0.0124771 0.00613755 -0.0128531 -0.0453407 -0.0450962 -0.0507376 -0.0201855 0.00640626 0.0131428 0.0320575 0.0296917 -0.00279224 -0.0157176 -0.0105367 -0.0303512 0.00277173 -2.01219e-05 -8.65731e-06 0.0176548 0.00459989 0.014908 0.0097889 0.0100462 0.00519304 0.0080819 0.0210169 0.0121517 0.0319965 0.0189594 0.00697454 0.017588 -0.0165731 -0.0490737 -0.0373836 -0.0104862 0.00138041 0.00176452 -0.00623609 -0.0241308 -0.00314955 -0.0479886 -0.0421751 -0.0318684 -0.0123662 0.00292869 0.0145272 0.00514558 0.0158278 0.0106748 0.00958029 0.0111902 0.0137379 0.0267057 0.0199519 0.0148326 0.0230075 0.00348834 0.00138758 -0.0124921 -0.0445454 -0.0707423 -0.0261733 0.0147268 0.00184177 -0.0133083 -0.00200372 -0.00822161 -0.0215911 -0.0577778 -0.0462951 -0.050538 -0.026942 0.0180173 0.00514175 0.00478029 0.00478523 0.0173006 0.0128862 0.00494401 0.00558022 0.0158642 0.016804 0.00509269 0.0256743 0.0189568 -0.0154904 -0.0233267 -0.04427 -0.0381036 -0.000708215 0.0259136 0.00456329 0.00717088 -0.00829321 -0.00471692 -0.0350894 -0.0287263 -0.0354316 -0.0590337 -0.0327775 0.0121249 0.0171156 0.0145367 0.0125153 0.0104908 0.00570595 0.0119897 0.00481134 0.0162432 0.0049188 0.0083778 0.0330396 0.0252529 -0.00908271 -0.015696 -0.0457559 -0.0244031 0.0140698 0.0288121 0.012032 0.00337085 -0.00857118 -0.00645035 -0.0300307 -0.0449205 -0.0580628 -0.0571097 -0.0250355 0.00126996 0.00312044 0.00423192 0.0171166 0.00865031 0.00349693 0.00950148 0.0147605 0.0237071 0.00139428 -0.00649443 0.0110693 0.00793468 -0.0119365 -0.0342308 -0.0377039 -0.0331862 0.0084175 0.0294827 0.0130202 -0.00833784 -0.0196057 -0.0287424 -0.0397343 -0.0490123 -0.0546039 -0.0460063 -0.017651 0.00255686 0.00496316 0.000183913 0.00828221 0.00368098 0.00368098 0.000191334 0.000432136 0.0063396 0.0149053 0.030736 0.00218204 -0.00224791 -0.00605538 -0.0311197 -0.0338564 0.0119756 0.00948571 0.0222113 0.0239631 0.00265375 -0.0183203 -0.0326261 -0.0342622 -0.0251145 -0.0313106 -0.0407445 -0.0167453 0.00385058 0.014353 0.00404908 0.00460123 0.0145399 0.011411 0.00360324 0.00231599 0.00894625 0.00442642 0.0224842 0.00489629 -0.00184085 -0.0150688 -0.0553837 -0.0299531 0.00576155 0.0243141 0.0434093 0.0303092 0.013307 -0.0403136 -0.0357254 -0.02672 -0.028239 -0.0451232 -0.0502476 -0.0227839 0.00826896 0.000182835 0.00423313 0.0119632 0 0.0167485 0.00328594 0.0011679 0.0100708 0.0232171 0.0263096 0.0312056 0.0111655 -0.0246312 -0.0341516 -0.00749605 0.034609 0.0639564 0.0407693 0.016554 0.00306963 -0.0260177 -0.0205999 -0.0204739 -0.0289153 -0.0609996 -0.048381 -0.0171491 0.000729149 0.0165645 0.0182209 0.00588957 0.00754601 0.0110429 0.00653446 0.0107387 0.0180073 0.0438679 0.0383094 0.0431522 0.0227385 -0.0295412 -0.0352234 0.00166014 0.0522916 0.0465879 0.0199985 0.0114895 -0.0192232 -0.0304305 -0.0147099 -0.0112034 -0.0306302 -0.0308939 -0.0222007 -0.00938837 0.00864542 0.0114113 0.00147239 0.0165644 0.00533742 0.00294479 0.0175278 0.00223208 0.0156821 0.0213223 0.0569789 0.0471131 0.0172542 -0.0191495 0.00993031 0.0478507 0.0385856 0.0239698 0.013731 -0.00488705 -0.0160148 -0.0257668 0.00131129 0.00172657 0.0048425 -0.0293813 -0.0190717 -0.00177587 0.0128823 0.0132522 0.00533751 0.00828221 0.0125153 0.00714273 0.00879153 0.0125791 0.033136 0.0316919 0.056768 0.0376562 0.0134589 0.0240769 0.0367164 0.0193155 0.0186864 0.0242398 0.0252954 -0.0305073 -0.0012914 -0.0337435 -0.00858139 0.00709224 0.0156513 -0.0116861 -0.0301002 -0.0269463 0.00809757 0.00993914 0.010491 0.00331288 0.0113821 0.0105616 0.000754835 0.0123177 0.0175769 0.0424979 0.0362492 0.0188699 0.0221593 0.0371001 0.0232492 -0.00478139 0.0139435 -0.00456959 -0.0195432 -0.0184206 -0.0204341 -0.00554653 -0.0133176 0.0166277 0.0214689 0.0034711 -0.0107264 0.00574096 0.010646 0.000737074 0.0077305 0.00754601 0.00362704 0.00324513 0.00695481 0.00362623 0.0174627 0.0219342 0.025394 0.0177285 0.031845 0.0158043 0.00329825 -0.00725409 0.000296035 -0.0238893 -0.0328711 -0.0139849 -0.00491708 -0.00613179 0.00529082 -0.000608756 0.0157828 0.0105005 -0.009973 0.0186587 0.00788423 0.00294929 0.00957101 0.00552147 0.00264267 0.00697328 0.00824055 0.00123777 0.0448707 0.0296862 0.00826307 0.00718873 0.0209222 0.0106087 0.0129508 -0.0143521 -0.00995733 -0.0279182 -0.0198496 -0.00759183 -0.00647899 -0.0134189 0.00118958 -0.00473746 0.00703097 0.0254074 0.00983359 0.0244839 0.0122777 0.0119501 0.0176675 0.00496933 0.00727072 0.0118638 0.00551447 -2.7909e-05 0.0560584 0.0324484 0.0024951 -0.000841169 0.031821 0.00622464 -0.00779783 0.0196873 -0.0124268 -0.0129576 -0.000728921 -0.00178842 0.0068758 -0.0270669 -0.0158546 -0.0102347 -0.000234336 0.0022678 0.00660526 0.00740291 0.00748496 0.0123441 0.0117706 0.0154598 0.010556 0.00986702 0.00858284 0.0153263 0.031659 0.00676262 0.021085 0.026372 0.0305871 0.0125159 -0.0271987 -0.0317329 -0.0262709 -0.0118265 -0.00922565 0.0162803 0.00364169 -0.00984423 -0.0251159 -0.0173683 -0.00132329 0.00179825 -0.0163284 0.00234439 0.012212 0.0128124 0.00585056 0.00183707 0.0131878 0.0102428 0.0110269 0.00424471 0.0188534 0.0227488 0.0233825 0.0246378 -0.0129127 -0.0183513 -0.0282732 -0.0247422 -0.0330021 -0.0210737 -0.00633056 0.00503985 -0.00352233 0.000368378 0.0151268 0.00273168 -0.0137769 -0.00752427 -0.0205546 0.00667328 0.0172059 0.00493269 0.0148543 0.0174651 0.0163051 0.000784071 0.0137703 -0.00048414 0.00295564 0.0117149 0.00131195 -0.00713551 -0.0150285 -0.00757689 -0.0255267 -0.0310711 -0.0339738 -0.0469665 -0.0318883 -0.0156246 -0.0042973 -0.00106792 0.00114076 0.00113915 -0.0153927 -0.00802888 -0.00476321 -0.00995943 0.0149932 0.0144315 -6.84441e-05 0.000643163 0.00861513 0.00350264 0.0115702 0.00880253 0.0110718 0.00276803 0.0150534 0.00331196 0.00577318 0.0186514 0.0105857 0.0159394 0.0194421 0.00360868 0.0127319 0.0108276 0.00015116 0.00949768 0.0113867 0.0092918 0.0131119 0.00750189 0.0115298 -0.00145052 0.00705133 0.0129736 0.0142947 0.012309 0.00201378 0.00304793 0.0025524 0.0110219 0.0168587 0.00198917 0.0161988 0.0185553 0.0168895 0.00232645 0.0156733 0.0156803 0.0193296 0.0181268 0.00298497 0.0112795 0.00254125 0.00507175 0.0149662 0.00782284 0.0122719 0.0146667 0.00399695 0.00735733 0.00788219 0.0087691 0.00788221 0.0071968 0.00479535 0.00973607 0.0134707 0.0166287 0.00829586 0.0105646 0.00228816 0.00646406 0.0139035 0.0121148 0.00624873 0.00933226 0.0133804 0.0116592 0.00878621 0.0109366 0.00655028 0.0169 0.00642774 0.0172735 0.00473972 0.0154218 0.00361783 0.00398269 0.00244351 0.00456532 -1.3069e-05 0.000921356 0.00846731 0.0016697 0.0024068 0.00162794 0.00714661 0.0178632 0.00652997 0.0157444 0.003274 0.00950924 0.00783382 0.0168558 0.0140241 0.00340121 0.0065951 0.0187568 0.00749845 0.0138233 0.00305183 0.000332871 0.00768766 0.0117782 0.00588568 0.0132325 0.0121504 0.0116036 0.00239513 0.00846632 0.00312883 0.000184049 0.0138037 0.000368098 0.00276074 0.0165644 0.00184049 0.00184049 0.00460123 0.0115951 0.0165644 0.0119632 0.000736196 0.00276074 0.0108589 0.00607362 0.0165644 0.00552147 0.0101227 0.00736196 0.0128834 0.00625767 0.0136196 0.0143558 0.0139877 0.00588957 0.00496933 0.00552147 0.0090184 0.0152761 0.00662577 0.00423296 0.00809683 0.0108583 0.0138039 0.00608106 0.00148206 0.0158282 0.00699387 0.0108589 0.0161963 0.00607362 0.00662644 0.00422985 0.00459061 0.0149067 0.00754601 0.00220824 0.00496583 0.00145982 0.00955798 0.00367749 0.0138037 0.0110429 0.00920245 0.011411 0.0160123 0.0117791 0.0011071 0.0149214 0.00629842 0.00514543 0.0115933 0.00923794 0.0164161 0.0064447 0.00329887 0.00108685 0.0165576 0.016929 -1.33111e-05 0.00590046 0.0110799 0.00587343 0.0150884 0.010474 0.0139412 0.00195215 0.0152053 0.0134209 0.0138017 0.0103071 0.0143553 0.0141718 0.0132515 0.0150978 0.00981161 0.0109137 0.0102547 0.00812224 0.0126758 0.0141674 0.0164199 0.00276082 0.00710358 0.00342552 0.00251299 0.0150754 0.00107016 0.00107691 0.000934249 0.00688964 0.0135408 0.0108923 0.0127518 0.00703876 0.00354107 0.00720942 0.0061848 0.00125287 0.0152623 0.00864985 0.00404908 0.0129362 0.0146184 0.000798261 0.0254506 0.0544373 0.0430775 0.0399612 0.0106929 -0.00351133 0.00780708 0.015931 0.0131846 0.0104206 -0.0328083 -0.0434748 -0.0378576 -0.0331025 -0.0240972 -0.0177635 -0.0463876 -0.0548267 -0.0501776 -0.0105754 0.000952689 0.00178537 0.00603379 0.00294017 0.0158282 0.0118704 0.00734153 0.00537387 0.0206285 0.026513 0.0591567 0.00465113 -0.0195685 -0.0237132 -0.0129139 -0.0293822 0.00612412 -0.0214088 -0.0792964 -0.0801525 -0.0215807 -0.025908 -0.0212266 -0.00396079 -0.0404858 -0.0102434 -0.0417708 -0.0178902 0.0172499 0.00917709 0.00604702 0.00643927 0.00331288 0.0164456 0.0170337 0.0135863 0.0354579 0.0268152 0.026624 0.0114687 -0.00350854 -0.0917116 -0.0407801 0.0158809 -0.0410914 -0.0759498 -0.0712342 -0.0752163 -0.0389999 -0.0236394 -0.0141376 -0.0326033 -0.0431861 -0.0595326 -0.0291761 -0.048726 0.00283843 0.0176447 0.0134206 0.0121464 0.014908 0.000211449 0.0162457 0.0123692 0.0256175 -0.00212208 -0.023051 -0.0464169 -0.0303559 -0.0271535 -0.0376947 0.0189336 -0.0420875 -0.0829611 -0.0953522 -0.102595 -0.00429726 -0.00772735 0.0268478 0.0153501 -0.0134735 0.00921249 -0.0116874 -0.016194 0.0104838 0.00549768 0.0101131 0.01546 0.0106748 0.0101313 0.00111718 0.0142393 0.0182831 -0.0202607 0.00555614 -0.015819 -0.0805904 -0.041708 -0.0694375 -0.0653074 -0.0433952 -0.107319 -0.0303667 -0.0621678 -0.0468337 -0.0543709 0.00710941 0.00347058 -0.0176456 0.0260516 -0.00350902 -0.0351244 0.0165256 0.0139827 0.00312267 0.0132515 0.0097546 0.00828353 0.00656421 0.00561934 -0.00327476 -0.00835366 -0.0232816 0.0145567 -0.0382743 -0.0416705 -0.0309769 -0.0355756 -1.79218e-05 -0.0812635 -0.0617093 -0.00229044 -0.0387845 -0.0450592 -0.021695 -0.0242133 -0.000532329 0.0455476 -0.00804362 -0.00626393 0.0102954 0.00752571 0.00257435 0.0156442 0.00441718 0.0103067 0.00206275 0.00514123 0.00424071 -0.0322912 0.00197184 -0.0908114 -0.0930182 -0.0478311 -0.024876 -0.00953031 -0.0197825 -0.0298309 -0.0596802 -0.0338182 -0.0134243 -0.030909 0.015553 0.00640352 0.0280376 0.0322581 0.00860501 -0.0139728 0.00958132 0.0143368 0.00957029 0.00404908 0.0104908 0.00644172 0.00531314 0.0157546 -0.00202774 -0.0120962 -0.0195497 -0.0169537 -0.0260737 -0.0232294 -0.00512056 0.059661 -0.0184149 -0.0251929 -0.00587709 -0.0336599 -0.0268445 0.00172534 -0.00184142 -0.0142686 0.0139798 0.0238337 -0.0291067 -0.0280926 0.0134294 0.0012378 0.0171166 0.00662577 0.00791411 0.0108589 0.000877188 0.000733744 -0.00462001 -0.0288041 -0.0115843 0.0309507 0.0298858 0.0797988 0.00764417 0.0438316 -0.0141302 -0.0172067 -0.0224108 0.000772068 -0.000103514 -0.0475511 -0.083902 -0.047909 -0.0196481 -0.0725864 -0.0777239 -0.0405306 0.00750136 0.0176131 0.00662577 0.0125153 0.00846626 0.0174847 0.0137538 0.0135718 -0.0293618 -0.0362685 0.015128 0.037932 0.00139515 -0.00356125 0.0588438 -0.030122 0.019988 -0.00451208 0.019112 -0.00128056 -0.0342958 -0.110794 -0.138888 -0.119189 -0.116919 -0.113778 -0.110892 -0.0717326 0.00773773 0.00195854 0.011227 0.0128834 0.0158282 0.0154601 0.00142849 0.00434757 -0.0396565 -0.0251281 -0.0175029 0.0154039 0.025565 0.0246873 0.0140406 -0.00336979 0.0229732 0.0386684 0.0413748 0.0477561 -0.0582192 -0.131496 -0.148926 -0.157862 -0.182865 -0.167084 -0.141687 -0.0843806 0.012311 0.0146435 0.0152761 0.0147239 0.0178528 0.0130675 0.0056832 0.00391968 -0.0354727 -0.0530973 0.0195615 -0.0200271 0.0437946 0.0133734 -0.0105045 0.0160568 -0.00957885 -0.00439369 -0.00278167 0.0322953 -0.0321919 -0.0928907 -0.170607 -0.200903 -0.209805 -0.184007 -0.155844 -0.0760041 0.0176568 0.00306011 0.00662496 0 0.000184049 0.0097533 0.0181709 0.0138102 -0.0793682 -0.074679 -0.0313675 -0.0243511 -0.00070947 -0.00476 0.0442903 0.0450496 0.042033 0.0594557 0.0467478 0.0129078 0.0158393 -0.0650396 -0.131706 -0.149459 -0.177626 -0.174418 -0.14864 -0.0834972 0.0109073 0.0174845 0.0165645 0.0156442 0.00496858 0.00807225 0.00835065 0.00404358 -0.0649676 -0.0696264 -0.0366115 -0.0441934 -0.047529 -0.016303 -0.0341316 0.0288538 0.0434515 0.0760026 0.0636734 0.0333037 0.0429961 -0.0304345 -0.0600706 -0.114931 -0.118668 -0.131001 -0.101497 -0.0574318 0.00406133 0.00490355 0.0161964 0.00552147 0.00753342 0.0181643 0.0171275 0.0143239 -0.0774025 -0.0637989 -0.0211896 -0.0780517 -0.0541996 -0.130254 -0.117096 -0.0481106 0.0187163 0.0404714 0.0444887 0.0545965 0.0104632 0.0430718 0.0048128 -0.0651176 -0.0624561 -0.061501 -0.0856309 -0.0334809 0.00524963 0.00109567 0.00220849 0.00883436 0.00953241 0.000436497 0.00918911 0.003338 -0.0608339 -0.0702376 -0.0427965 -0.0640133 -0.0377663 -0.0389304 -0.119317 -0.101243 -0.103384 -0.0626951 -0.025574 -0.00210941 -0.00826795 0.00467297 0.0336425 0.0282426 0.0146356 -0.0294667 -0.0168372 -0.0135886 0.00272331 0.0182105 0.0027606 0.0103067 0.00418272 0.011812 0.000651082 0.00177971 -0.0195295 -0.0273877 -0.0338403 -0.0884887 -0.0225072 -0.0724401 -0.11372 -0.206315 -0.128349 -0.120024 -0.0555313 -0.0672028 -0.0587925 0.034876 -0.0532021 -0.0258848 0.0376331 0.0225241 -0.0171638 0.0309937 0.00875301 0.0180313 0.0156379 0.00662558 0.0115141 0.013436 0.00244423 0.00654474 -0.0195879 0.00184875 -0.0423239 -0.00762197 -0.0650902 -0.0726862 -0.117897 -0.171355 -0.195717 -0.148409 -0.100597 -0.0418196 -0.0534277 0.0245106 -0.00249398 0.010498 0.0195293 0.0859954 0.0306904 0.0367363 0.013083 0.00453823 0.0130385 0.0139854 0.00197132 0.0119861 0.0149025 0.0171853 -0.000371945 -0.014854 0.00452515 -0.0659407 -0.0421984 -0.0420514 -0.153728 -0.215535 -0.238292 -0.192411 -0.161689 -0.091894 -0.0956218 -0.00527917 0.0547116 0.0588394 0.103111 0.0364875 0.0480087 0.0159719 0.0147826 0.0148241 0.0113611 0.0169221 0.0122655 0.00418844 0.0183499 0.0110529 -0.0276796 -0.00999051 0.0179418 0.0329339 0.0073245 -0.0363761 -0.10193 -0.159931 -0.196342 -0.151286 -0.114109 -0.0493429 -0.00240603 0.0366918 0.010658 0.0571686 0.0549777 0.073219 0.0338689 0.0351022 0.0133951 0.0136999 0.0141172 0.00809394 0.001292 0.0111746 0.00299784 0.0155942 0.00692672 0.0145363 0.00390015 0.0150765 0.00975398 0.0109023 0.00387744 0.00970068 0.0088547 0.0172451 0.00147051 0.00293287 0.0142565 0.0128721 0.00780214 0.0113815 0.0103858 0.00726513 0.00267277 0.00383213 0.00185396 0.0118835 0.00307849 0.0158125 0.0180558 0.00781391 0.0114869 0.00699573 0.00896698 0.00581167 0.00593255 0.0110085 0.0153804 0.00163801 0.00243886 0.010944 0.00970381 0.00718439 0.00946399 0.0169321 0.0110837 0.0166505 0.00782297 0.0131425 0.00281632 0.0091452 0.00917932 0.00253465 0.0107195 -0.000189831 0.0132052 0.00772303 0.0152913 0.0180801 0.00965028 0.0103798 0.017596 0.013651 0.0169499 0.0165833 0.0129374 0.0105349 0.00121902 0.00137562 0.0120611 0.000770293 0.00768318 0.00183868 0.00806913 0.0136958 0.00172886 0.015441 0.0116352 0.00657197 0.0125278 0.0113614 0.00557713 0.0120744 0.0147114 0.0101222 0.00809927 0.0134452 0.00406504 0.0104699 0.00333224 0.00283094 0.00452485 0.0018957 0.00297687 0.0176828 0.0137802 0.0145825 0.000115941 0.0019756 0.0051146 0.000938707 0.00182262 0.00259466 0.00901731 0.00645657 0.00160033 0.0121459 0.000547484 0.00448765 0.0135676 0.00625152 0.00680874 0.0165644 0 0.00128834 0.00478528 0.00460123 0.0154601 0.00625767 0.00202454 0.011411 0.00957055 0.0147239 0.00625767 0.00957055 0.00625767 0.0182209 0.00515337 0.0121472 0.0119632 0.00552147 0.000552147 0.0110429 0.00773006 0.00773006 0.014908 0.00552147 0.0110429 0.00625767 0.0119632 0.00736196 0.0158282 0.00533742 0.0093865 0.00920244 0.011779 0.00202448 0.00110449 0.00110919 0.00589594 0.00331289 0.0152761 0.0154601 0.00773006 0.00110429 0.0141706 0.0141572 0.00568705 0.00846411 0.0130675 0.0167484 0.0121466 0.00441488 0.0163781 0.00423249 0.00717791 0.0106748 0.0093865 0.00147239 0.000736196 0.0152761 0.00202564 0.0073738 0.0134789 0.0173042 0.00828553 0.0178757 0.00517505 0.0053305 0.00340836 0.00300293 0.0156174 0.0051504 0.00384342 0.00603368 0.00187863 0.0152498 0.017483 0.00772743 0.00257158 0.0106648 0.00993176 0.00239154 0.0123425 0.00939141 0.0178528 0.00312883 0.0156442 0.00607521 0.00738314 0.0086036 0.0142904 0.00501106 0.00808604 0.000744415 0.00925055 0.00633232 0.0164557 0.00630588 0.00909178 0.00515703 0.010149 0.0101041 0.015039 0.000335182 0.00205351 0.0142243 0.00133518 0.0162203 0.0156378 0.0147153 0.000561922 0.0166031 0.000366656 0.010491 0.00552147 0.00387977 0.00415934 0.00192939 -0.00576654 0.00843618 -0.012116 -0.00630434 -0.00946969 -0.0310391 0.0110729 0.00425431 -0.00937875 -0.0119557 -0.0303078 -0.0887701 -0.112229 -0.105938 -0.0583118 0.00370527 0.00865156 0.00985714 0.00935042 0.0105636 0.0142017 0.0151512 0.00589623 0.0180334 0.000552147 0.00591431 0.00138132 0.0123175 -5.08796e-05 0.00031309 -0.00703104 -0.0297874 -0.0372222 -0.0370497 0.00466968 -0.0384968 -0.0178069 -0.0248032 -0.0470008 -0.118345 -0.143333 -0.130022 -0.0513636 -0.0266962 0.0158665 0.00503349 0.00193262 -0.0120308 3.07347e-05 0.00131418 0.0121456 0.00975287 0.00460123 0.000570046 0.012784 0.015136 -0.0133491 -0.0169789 -0.0267485 -0.0437539 -0.0523709 -0.0365827 -0.0318675 -0.0402864 -0.0260158 -0.00537074 -0.00470848 -0.0886213 -0.137825 -0.0865887 -0.00823482 0.00866483 0.0187276 -0.0156602 0.0111285 0.00451536 0.0147075 0.00661524 0.000728688 0.00220843 0.00478528 0.00681712 0.00965383 0.00825632 -0.0142692 -0.0364993 -0.0384539 -0.0562212 -0.0622197 -0.0359587 -0.0215713 -0.0234487 -0.0062247 0.0074531 0.0278494 -0.0574931 -0.12916 -0.05661 0.0311097 0.0163559 0.0210215 0.0304885 -0.0324395 -0.00561157 0.0091902 0.00550945 0.0152708 0.00662572 0.00220859 0.0042354 0.000617817 0.0148579 -0.0168871 -0.0346012 -0.0324147 -0.0597948 -0.0604149 -0.0509205 -0.0184678 -0.0102776 0.0244764 0.0342796 0.00114757 -0.0902704 -0.109677 -0.015788 0.0362483 0.0290393 0.0127079 -0.0182664 -0.0106869 0.0118393 0.00587267 0.0136129 0.00883096 0.00128834 0.00184049 0.0156445 0.00849955 0.0175961 -0.0293456 -0.0606977 -0.049938 -0.0696086 -0.0380582 -0.0266253 -0.00911888 -0.00139398 0.0260902 0.0226487 -0.0239367 -0.0826413 -0.0340163 0.0203986 0.0179379 0.0141948 -0.00390787 -0.0286268 -0.0408034 -0.0290409 0.00920334 0.013429 0.0154588 0.00202454 0.0126994 0.0108589 0.0176781 0.00356162 -0.0311656 -0.0698213 -0.0600579 -0.0702055 -0.0395521 -0.00557622 0.0228301 0.00588616 0.0148048 0.01408 -0.0218415 -0.0456239 0.00260364 0.0177538 -0.00557395 -0.00872546 -0.024988 -0.0468287 -0.0322063 -0.0274336 0.0104721 0.0165559 0.00460119 0.0154601 0.015092 0.00680982 0.00385244 0.00925067 -0.0290759 -0.0699753 -0.0620778 -0.0549272 -0.015026 0.0288595 0.0287811 0.0164782 0.0337744 0.0178079 -0.00437682 -0.000252342 0.0200413 0.00938655 0.0166107 -0.00380915 -0.0090968 -0.0508062 -0.039846 -0.00261692 0.0126764 0.0141673 0.0123313 0.00625767 0.00957055 0.0173006 0.0159889 0.00328282 -0.0311447 -0.0671704 -0.0531439 -0.0157887 0.0146408 0.0105839 0.019236 0.018713 0.0346899 0.00234889 0.00378546 0.00459001 0.011978 0.0152295 0.00815522 -0.0276513 -0.0594045 -0.044355 -0.0355354 -0.0164755 0.00771562 0.00993425 0.00828221 0.0158282 0.0110429 0.0136196 0.00917584 0.00990885 -0.019037 -0.0514185 -0.0105741 0.0237206 0.0264955 0.0242124 0.0419087 0.0355516 0.017855 0.0221705 -0.00879589 0.0173837 0.0247133 0.0089241 -0.00636817 -0.0467855 -0.0558606 -0.0597313 -0.035635 -0.0108907 0.00955133 0.0167492 0.00828221 0.00404908 0.000552147 0.0154601 0.00899784 0.00969095 -0.0105611 -0.0186846 0.00764654 0.0337188 0.0207139 0.0269822 0.0315231 -0.0137421 0.00487485 -0.0188736 0.00996319 0.0299447 0.0239769 -0.000103534 -0.0258164 -0.0297783 -0.0531344 -0.0537195 -0.0518951 -0.034376 0.0108191 0.00110597 0.00920245 0.0123313 0.00736196 0.00294479 0.0152606 0.0172097 -0.0143768 -0.0137331 0.0188339 0.025178 0.00424797 0.0227066 0.00906201 -0.00134645 0.0172145 0.00954321 0.000508431 0.0380594 0.032309 -0.00925423 0.00562155 -0.035574 -0.0485949 -0.0514434 -0.0439337 -0.0276028 0.00928947 0.00037258 0.0149085 0.00404908 0.00404908 0.0178519 0.0165354 0.0044604 -0.00919767 -0.0137415 0.007035 -0.00313519 0.000402819 0.000690288 0.0196897 -0.00211394 0.029382 0.0111933 0.0176993 0.01901 0.00355076 -0.00857439 0.000855316 -0.0127581 -0.0446035 -0.0663088 -0.049382 -0.0227088 0.0152884 0.0119665 0.010492 0.00110429 0.0132509 -1.98526e-05 0.00618324 0.0154529 -0.02467 -0.022636 -0.020367 -0.027887 -0.00899011 0.0114512 0.0175596 0.00143184 0.0048537 0.00339778 -0.000840472 0.000928273 -0.00348015 -0.000968095 0.00414246 -0.0361392 -0.0391998 -0.0573007 -0.0470209 -0.0303894 0.0160001 0.00534196 2.60954e-06 0.00368098 0.00109468 0.00694761 0.00873321 0.011538 -0.00909592 -0.0247195 -0.0333879 -0.021446 -0.0182841 0.00864894 -0.00328725 -0.0215286 -0.00959707 0.00186977 0.0107603 -0.0283927 -0.0318718 -0.00617484 0.0183007 -0.0209461 -0.0483973 -0.0360592 -0.0502782 -0.0325983 0.00911592 0.0151005 0.0136225 0.00368098 0.00126053 0.00121273 0.000618518 0.0155414 -0.0121476 -0.0162022 -0.0205577 -0.00174696 -0.00713148 -0.00960801 -0.00167034 -0.0240657 -0.00169065 0.00118764 -0.0248813 -0.0243792 -0.000547557 -0.00870812 0.000562858 -0.0350686 -0.0453453 -0.0427443 -0.0543153 -0.031621 0.0119311 0.00957532 0.000738458 0.00570552 0.00954042 0.00451321 0.00357135 -3.36311e-05 0.0193021 0.0139374 0.00176583 -0.0293666 -0.0277645 -0.0263542 -0.0312075 0.00841092 0.0182221 0.0102106 -0.0230981 -0.0182352 -0.00302628 -0.0179977 -0.0140612 -0.0349734 -0.0341843 -0.0375126 -0.0275691 -0.0153274 0.0168933 0.0067972 0.0171092 0.0158279 0.0174564 0.0169553 0.015471 0.00483402 -0.00184853 0.000257263 -0.000386878 0.0158039 -0.019879 -0.024467 -0.0222833 0.00420718 -0.0182941 -0.0101909 -0.0178335 0.0121309 0.00388301 -0.0132372 -0.0375127 -0.0121217 -0.0350941 -0.0204959 -0.00342049 -0.0128711 0.0130196 0.0120847 0.0152353 0.0114069 0.00843893 0.0166137 0.0140391 0.0115927 -0.007041 -0.0239557 0.00431061 0.00879506 -0.023278 -0.0105934 -0.0357029 -0.00459037 -0.01188 -0.0115941 0.00136007 0.0179689 -0.0218067 -0.0137613 -0.0325533 -0.0313211 -0.0347526 -0.02581 -0.00743325 -0.0045939 0.0142947 0.00323809 0.0126414 0.000546027 0.00676256 0.0109193 0.0113666 -0.000926438 0.00354162 0.00521318 -0.00794779 0.0341774 0.0490633 0.00916973 -0.0227869 -0.0177552 -0.0034912 -0.0123044 -0.000823029 0.0109902 0.00269623 -0.00614278 -0.0122824 -0.00654361 0.00966942 0.00118602 0.0100094 0.00675252 0.0177572 0.017979 0.0172282 0.0119327 0.016002 0.0173931 0.0110406 0.00167735 0.0072661 0.0020917 0.0175541 0.00414846 0.00732606 0.0050843 0.0171845 0.0169196 0.012013 0.0173677 0.0138249 0.00733774 0.0127995 0.00577486 0.0178107 0.00902815 0.0168785 0.0122719 0.00261259 0.012293 0.0117955 0.0135873 0.00104552 0.00144614 0.00404951 -9.26881e-06 0.00897762 0.00341633 0.000591277 0.00216355 0.0130691 0.0113637 0.00364041 0.00688317 0.00438465 0.00886216 0.0088743 0.0124421 0.00103455 0.0161998 0.00984876 0.00661395 0.00392354 0.01289 0.00872917 0.005132 0.0169412 0.0172863 0.0143033 0.0161465 0.00385219 0.0117724 0.0139871 0.0146991 0.0123032 0.0169097 0.0165932 0.00466312 0.008739 0.0159373 0.00507911 0.0101377 0.00354412 0.00562935 0.00569324 0.00293861 0.00526696 0.00436235 0.015958 0.013531 0.015975 0.00685175 0.00838655 0.000729396 0.00477904 0.00223147 0.013535 0.00517587 0.00368716 0.0062631 0.00257663 0.00883614 0.0156449 0.014908 0.00534659 0.013617 0.0126495 0.00821959 0.00440538 0.00483892 0.0117975 0.00847558 0.0129551 0.0150139 0.000889833 0.0181659 0.00461598 0.0111941 0.0171032 0.0106822 0.0108528 0.014721 0.0156443 0.00409882 0.0139794 0.017525 0.00148538 0.017301 0.000552147 0.0126994 0.0169325 0.00368098 0.0130675 0.00478528 0.0125153 0.0156442 0.0138037 0.0152761 0.00257669 0.00754601 0.00496933 0.00331288 0.000920245 0.0126994 0.00404908 0.0128834 0.0161963 0.00957055 0.00607362 0.0101227 0.00147239 0.00239264 0.0126994 0.00128834 0.0117791 0.0141718 0.0154601 0.00202454 0.011411 0.0110429 0.00883425 0.00736192 0.00754595 0.00809732 0.00588848 0.0132515 0.00386503 0.00607362 0.0182209 0.0163804 0.0057055 0.0114081 0.0150897 0.0154599 0.00846626 0.00883432 0.0104904 0.00901694 0.00165498 0.0104904 0.0104908 0.00717791 0.0173006 0.00220859 0.00239264 0.0106748 0.0134352 0.00570525 0.0106814 0.00294333 0.0149013 0.00938164 0.0093847 0.00754886 0.00368461 0.00737422 0.0105017 0.0169428 0.0136305 0.00809933 0.0022226 0.0152729 0.0176815 0.0176687 0.0143509 0.00111771 0.00680457 0.000388174 0.00885028 0.0115985 2.5148e-07 0.014908 0.00828221 0.00478509 0.00201006 0.00550119 0.00239161 0.00900733 0.0159993 0.0059907 0.0119481 0.00230244 0.017936 0.0177376 0.0026234 0.0044559 0.0127289 0.00244156 0.00352122 -3.89297e-05 0.00309828 0.0101475 0.00923936 0.0134699 0.0142236 0.0138064 0.00979798 0.0180563 0.00441876 0.000920347 0.0171166 0.00625581 0.00163305 0.0121342 0.00578019 -0.0136327 -0.00273422 -0.00911189 -0.0174778 -0.00847019 0.00731422 0.0179148 0.0229862 0.0361783 0.044742 0.0305078 0.0456003 0.0316406 0.0028444 0.034364 0.0151364 -0.0258398 -0.0167719 -0.0146955 0.0149391 0.0093979 0.0163761 0.0121484 0.0106748 0.00128431 0.0176795 0.0163568 -0.0185647 -0.0255529 -0.0143708 0.0157574 -0.0098469 -0.0036293 -0.00669907 0.0290423 0.0551548 0.074064 0.0522032 0.0442114 0.075451 0.0355027 0.0435325 0.0571353 0.0342566 0.0202621 -0.00769461 -0.0122189 0.00497365 0.00164604 0.00220554 0.00496921 0.000368098 0.0163775 0.0134069 0.00845545 -0.0261103 -0.0313438 -0.00628354 -0.00966547 -0.00207754 -0.00212882 0.0102394 0.0191033 0.0324279 0.0224438 0.0353442 0.0252037 0.0323865 0.00998078 0.00100377 0.0340174 0.00932146 -0.00165502 0.00187181 -0.0224479 0.00213672 0.00698784 0.00570319 0.0134355 0.0134356 0.0106739 0.00660099 0.00364506 -0.0481559 -0.0295012 -0.00681112 -0.0263075 -0.0376963 -0.0161795 -0.0658347 0.0326433 0.0266317 0.04869 0.000608882 0.0606424 0.0202405 -0.00159139 -0.00948431 -0.013415 0.011726 0.000550893 -0.00437076 -0.0182203 0.00228385 0.0158245 0.00956892 0.00460121 0.00662577 0.00607345 0.0034774 0.000165592 -0.034078 -0.0218266 -0.0147062 -0.000492702 -0.0294183 -0.0334706 -0.0385596 -0.0324768 0.0106442 0.00148548 0.0146808 0.0171216 0.0162426 -0.0165937 -0.0179379 0.0137937 0.0301032 -0.0267218 -0.00811776 -0.0299861 0.0151487 0.00975331 0.00533638 0.00202454 0.00754601 0.00331286 0.0139784 0.0114016 0.0018106 -0.000679849 0.0195498 0.0195661 -0.0151897 -0.0362969 -0.0414607 -0.0286491 -0.0329657 -0.0328779 0.0191879 -0.00956551 0.0721994 0.0152909 0.0199133 0.000378052 -0.0206699 -0.0233678 -0.0142249 -0.0170835 0.0159785 0.00993562 0.00423273 0.0126994 0.00441718 0.00588957 0.0165715 0.00115268 -0.0172348 -0.00237553 -0.0185443 -0.0364813 -0.0137352 -0.0487074 -0.0663525 -0.0737523 -0.0490906 0.00442823 0.0359559 0.0268472 0.0268762 0.044156 0.0178586 -0.0200734 0.00776406 -0.00716111 0.0247392 0.016192 0.0118685 0.00807334 -3.41119e-08 0 0.00754601 0.00552147 0.014564 0.0035439 0.00605688 -0.00537531 -0.0262367 -0.0123551 -0.0230737 -0.031867 -0.0789444 -0.0457031 -0.0490836 -0.0166668 0.0618411 0.0386751 0.0328381 0.0186108 0.0460622 0.0170369 0.00769787 0.037539 0.0226267 0.00945731 0.00545453 0.0150714 0.0134356 0.0134356 0.0165644 0.00846626 0.00242999 0.0111161 0.0139448 -0.0120287 -0.0205239 -0.00777082 -0.00345841 -0.0145074 -0.0652097 -0.0464372 0.000727301 -0.0322294 -0.0124665 0.00624491 -0.00575568 0.0311937 0.00569396 0.0341229 0.0248268 0.0430145 0.0175176 0.00245355 0.0012252 0.00421515 0.00496933 0.0182209 0.0154601 0.00791411 0.0160531 0.0148021 0.016211 0.0103618 0.00587009 -0.00696121 -0.0206505 -0.0307057 -0.0698941 -0.103647 -0.0467639 0.00292992 -0.00691317 -0.043877 -0.0229184 -0.00841598 -0.0119837 0.0202413 -0.00609288 0.0127272 0.007595 -0.000994399 0.0152212 0.0154588 0.00165644 0.00294479 0.000184049 0.00460123 0.0129177 0.00360806 0.0328206 0.0222463 -0.00406295 -0.00896407 -0.0477868 -0.0569852 -0.0656565 -0.0630138 -0.0668348 -0.0530978 -0.0344378 -0.0359081 -0.0366502 -0.0228357 -0.00678132 0.00743984 0.0104599 -0.0133393 -0.0270926 -0.0185382 0.0146692 0.0141617 0.0165644 0.00404908 0 0.0136196 0.0169572 0.000511986 0.03697 0.0228972 0.0040274 0.00413186 -0.0429211 -0.0771939 -0.0393984 -0.0713804 -0.00697679 -0.0247301 -0.0267876 -0.00166967 -0.00378215 0.00339323 -0.000660043 0.00696871 -0.0175919 -0.0365544 -0.0484444 -0.0225565 0.0146852 0.0134292 0.0132509 0.0154601 0.00865031 0.0138046 0.0138427 0.00752029 0.00948044 -0.00704312 -0.0334319 -0.0381295 -0.00635495 -0.046792 -0.0202173 -0.0317024 -0.0125324 0.0281112 0.0297966 -0.000738987 -0.026193 -0.000312296 -0.0108696 -0.0338913 -0.0422071 -0.0599077 -0.0594859 -0.0452113 0.00622702 0.00827767 0.00993698 0.00312883 0.0176694 0.00664563 0.00780127 0.0104366 -0.0197614 -0.0454619 -0.0603628 -0.0477476 -0.0338111 -0.0188694 -0.0523742 -0.0417106 -0.0130276 0.0336159 0.0193575 -0.00533182 -0.00996328 -0.035695 -0.0612542 -0.0497902 -0.0445941 -0.0665032 -0.0641195 -0.0354306 0.0152479 0.00938002 0.00459742 0.00368098 0.00497898 0.00833099 0.0149665 0.0170067 -0.0524971 -0.0652505 -0.0955055 -0.0894074 -0.0903661 -0.0573752 -0.0564059 -0.0698699 -0.0366849 -0.029037 -0.0422081 -0.037702 -0.0444262 -0.06541 -0.0702378 -0.071376 -0.0675497 -0.0693947 -0.0588812 -0.0416885 0.0172493 0.0093745 0.00312505 0.000184049 0.00812493 0.0105411 0.00477928 0.00241094 -0.0814132 -0.0755841 -0.105407 -0.102938 -0.0986398 -0.101722 -0.0777366 -0.06211 -0.0418929 -0.0224172 -0.029176 -0.0736688 -0.0691128 -0.103929 -0.0716288 -0.0766099 -0.05148 -0.0718143 -0.0644973 -0.0241832 0.00234241 0.0115678 0.00257301 0.00460123 0.00996498 0.0079444 0.00202016 0.0184313 -0.0799346 -0.0933328 -0.0891274 -0.0945137 -0.121509 -0.125924 -0.0896421 -0.0419562 -0.0403511 -0.065106 -0.0461356 -0.063756 -0.0818624 -0.0807833 -0.057597 -0.071744 -0.0549714 -0.0605903 -0.0490348 -0.0122499 0.00069021 0.00695164 0.0161947 0.00736195 0.0033384 0.0113961 0.00554705 0.0182379 -0.0763824 -0.0987665 -0.0852111 -0.0900667 -0.108102 -0.0838447 -0.109458 -0.0636761 -0.0322266 -0.0510653 -0.051165 -0.0990638 -0.101137 -0.0824374 -0.0667524 -0.0652633 -0.0613711 -0.0480021 -0.019154 -0.0190416 0.00201535 0.0126769 0.00202017 0.0174853 0.0152987 0.00466429 0.0163689 0.0147191 -0.0450528 -0.0638919 -0.0894343 -0.0806745 -0.0788731 -0.0746217 -0.083668 -0.0426298 -0.0774187 -0.0503536 -0.0521042 -0.0682972 -0.081022 -0.0661619 -0.0536049 -0.0532071 -0.0412781 -0.0109671 -0.0154158 0.00075099 0.0041263 0.00473757 0.00642487 0.0141754 0.00906377 0.00552901 0.0190254 0.00903713 -0.0399555 -0.0683489 -0.0501604 -0.0502464 -0.0624075 -0.0513286 -0.0482023 -0.0251265 0.00412715 -0.0283235 -0.0151326 -0.0220376 -0.0223348 -0.0194732 -0.0233936 -0.0141951 0.00808088 -0.00876472 0.00933683 0.00471711 0.00976703 0.0119321 0.01398 0.0161971 0.0171391 0.00667244 0.0111218 0.0127902 0.00249011 0.00835961 0.0108837 0.0144488 0.00415397 0.0191791 0.00509589 0.00885269 0.00453288 0.00931996 0.0177967 0.00149817 0.016922 0.00483013 0.00878518 0.0171165 0.0172236 0.0127959 0.00926498 0.0135151 0.00316291 0.000783654 0.014888 0.0108615 0.0105231 0.00376798 0.00788348 0.00341067 0.00979108 0.010803 0.00496663 0.00871204 0.014865 0.013586 0.0139675 0.0152916 0.00499467 0.00933528 0.0171425 0.0136824 0.0099854 0.0107943 0.00686346 0.000342068 0.00811358 0.00941678 0.0120841 0.0176015 0.00908591 0.0129812 0.00990253 0.00772701 0.0182486 0.00180656 0.0089797 0.017487 0.00447122 0.00584819 0.0173662 0.0167237 0.00540622 0.0172067 0.0079265 0.0121819 0.00969333 0.0114337 0.00755309 0.00937149 0.00138504 0.00434778 0.00741949 0.0177877 0.00164615 0.00461402 0.0173577 0.00144998 0.0103748 0.0160242 0.0145147 0.0182121 0.0152781 0.00387852 0.00777491 0.00626763 0.0159893 0.000180939 0.000378566 0.00871232 0.00538884 0.0142686 0.0120091 0.00762437 0.00165746 0.0145458 0.0110668 0.00378926 0.00915101 0.0149003 0.00959715 0.00520873 0.00424472 0.0154603 0.00718187 0.0114172 0.00663957 0.0152342 0.0167304 0.00717737 0.00349693 0.0165644 0.00312883 0.0123313 0.0121472 0.00147239 0.00165644 0.0101227 0.00460123 0.00754601 0.00331288 0.00883436 0.00828221 0.00533742 0.0165644 0.0178528 0.00460123 0.00368098 0.0171166 0.0143558 0.0104908 0.0128834 0.0125153 0.0141718 0.00625767 0.00441718 0.0117791 0.0171166 0.0165644 0.0158282 0.00147239 -1.73433e-07 0.0033115 0.0165638 0.0062576 0.0126975 0.0141694 0.0156442 0.00993865 0.0123313 0.0152761 0.00754601 0.00441216 0.0155679 0.00180616 0.00570197 0.00754601 0.00699374 0.00367969 0.009934 0.00570087 0.0143545 0.00828221 0.0103067 0.00515337 0.0106748 0.0106748 0.0138037 0.011778 0.0161523 0.00682519 0.0106556 0.0128795 0.00275105 -9.40441e-06 0.0141607 0.000161224 0.00919727 0.0134104 0.0128559 0.00831645 0.00950946 0.0174907 0.00472914 0.00604074 0.00603452 0.0115772 0.0100482 0.0161211 0.00588176 0.0137601 0.00202176 0.00441623 0.000920245 0.0173006 0.0163889 0.00566856 0.00898019 0.00762928 0.00414022 0.00288787 0.0154334 0.0170032 0.00345555 0.00564998 0.0180716 0.000607169 0.00219127 0.0126337 0.00455118 0.0101508 0.0148329 0.0162972 0.0174762 0.0101271 0.00655014 0.0141184 0.00990193 0.0153482 0.013034 0.0139362 0.0082798 0.0171166 0.017378 0.00123947 0.0142502 -0.00546894 -0.00331731 -0.00931055 -0.00475552 0.00362511 0.00299992 -0.0193369 -0.0219346 -0.00662437 -0.00754379 0.0372898 0.0315385 -0.0326989 0.010466 -0.0230203 0.00896949 -0.0183294 0.00700536 0.000843052 -0.00565076 0.00964954 0.00608112 0.00844781 0.00881334 0.0136196 0.0159566 0.0158173 0.0171245 -0.0149303 -0.0287862 -0.023321 -0.0147964 -0.000188163 0.0109284 -0.0100819 -0.0112874 0.0233296 0.026742 0.0303353 0.0172304 -0.00732715 0.00934976 -0.00485949 -0.00568005 -0.000374396 0.00727372 -0.0104383 0.02163 0.0164508 0.00328223 -6.5204e-05 0.000361528 0.00791411 0.0161016 0.00241366 0.00923576 -0.0148465 -0.0191453 -0.00960477 -0.00610836 -0.0182402 -0.00781709 -0.00648269 0.0227849 0.0111532 -0.0336145 -0.000440862 0.00182368 0.0293442 0.00367308 0.0112592 0.0118427 0.0303091 -0.00386277 -0.00179504 0.012316 0.0132624 0.0131966 0.00678183 0.0152757 0 0.0132931 0.0171328 0.0128992 -0.0166934 -0.0148989 -0.0103358 0.00229737 0.000801916 -0.0318245 -0.0150008 -0.0122244 -0.00384766 0.0276535 0.00987222 -0.00157504 -0.00193334 0.018759 0.0419799 0.00354053 0.025477 0.0298844 0.00479339 0.0128229 0.00175917 0.00345823 0.00274427 0.00386487 0.0160123 0.0178669 0.00182529 0.0156914 -0.00199191 -0.00149211 -0.00924475 -0.00547938 -0.0264243 -0.0152898 -0.0195874 0.00257383 -0.00237577 0.0180373 0.0262444 0.011429 0.0154995 0.0248598 0.0315113 0.00711364 0.000501385 0.0129685 0.0345111 0.0106305 0.00926306 0.00457395 0.00551092 0.0126994 0.0138037 0.0121494 0.00123413 0.0150161 0.00530464 -0.00368106 -0.00353331 -0.00816766 -0.00139284 0.0166386 -0.0106715 0.0326673 0.022303 0.0234529 -0.00267953 0.041427 0.0131264 0.0130669 0.0179493 0.0342518 0.0124048 0.0329022 0.0106857 0.0352941 0.0137401 0.0178255 0.00625367 0.00846626 0.011411 0.0090184 0.000983799 0.0126443 -0.00386484 -0.00466741 -0.0181979 0.00181243 -0.0127634 0.0260996 -0.0157364 -0.00828999 -0.00408942 0.0149709 -0.0206759 -0.0251106 -0.0307536 0.0211435 0.0316522 0.0205331 0.0413357 0.0415684 0.0366282 0.00485345 0.000906126 0.00181498 0.000367987 0.0152761 0.00276074 0.0154601 0.000928988 0.016314 0.0237366 -0.00890634 -0.0274319 -0.0109768 -0.0172775 -0.00383059 -0.0375742 -0.00982966 0.00530704 -0.0326226 -0.0419611 -0.055469 -0.0260405 0.0329915 0.0406485 0.0323173 0.034295 0.0436643 0.0137248 0.0060736 0.00215007 0.000542681 0.00349693 0.00993865 0.0108589 0.0174847 0.00458465 0.0107694 0.0124764 -0.015612 0.00952263 0.00166512 0.0191655 -0.0185488 -0.0120524 -0.00326727 -0.00210679 -0.0504631 -0.0720255 -0.0488463 0.0230739 0.059364 0.0673495 0.0402605 0.0338825 0.0653233 0.0537511 0.010636 0.0130301 0.00956225 0.00662577 0.00533742 0.00828221 0.0163804 0.0180148 0.0018503 -0.0136462 -0.0139294 0.028799 0.00803689 -0.00721575 0.00593978 0.0241903 -0.0416473 -0.0424252 -0.0719908 -0.0668325 -0.0125153 0.0591116 0.0740555 0.0497572 0.0304902 0.0504361 0.0607692 0.0341266 0.0334731 0.012844 0.0121441 0.00460123 0.011227 0.0169325 0.0104908 0.00274329 0.00877148 -0.0244367 -0.0325778 -0.00954691 0.0059547 -0.00443515 -0.00692282 -0.00452577 -0.0599323 -0.0738492 -0.0570911 -0.0408836 0.017357 0.0303568 0.0404363 0.0178756 0.0711585 0.0437048 0.0802054 0.0380304 -0.0110212 0.0102606 0.00698014 0.0176687 0.00883436 0.0156442 0.00441718 0.0139739 0.00654187 0.00105581 -0.023582 0.0137274 -0.0250351 0.0110456 -0.00919808 -0.0332887 -0.0567556 -0.0694065 -0.0789362 -0.0266348 0.0202415 0.0168412 0.00976023 0.0437318 0.031034 0.0480599 0.0390886 -0.0334635 -0.0567758 0.00436595 0.0145235 0.0132504 0.00496933 0.00331288 0.00478566 0.00753075 0.00940844 -0.0247424 0.00160032 -0.0108917 -0.0035248 0.00322194 0.0100017 -0.0134584 -0.044414 -0.0578886 -0.0764542 -0.0586203 0.00182326 0.000363412 0.0085405 0.0233528 0.0291618 0.0235566 -0.0710075 -0.0928007 -0.0649577 0.0012071 0.0119514 0.0152701 0.0156442 0.0106752 0.0156549 0.00216425 0.00905194 0.00117571 0.0117122 -0.0140386 -0.00481648 -0.0128188 -0.0117681 -0.0398576 -0.0753975 -0.0794655 -0.11278 -0.073659 -0.0452309 -0.0446279 -0.0165388 -0.0124592 -0.0385544 -0.0701141 -0.0908623 -0.102726 -0.0548068 0.0111284 0.00292833 0.00771951 0.000368098 0.00975991 0.0112256 0.0169557 0.00627288 -0.0360519 0.0229204 -0.00673155 0.00572835 0.0209589 -0.0106212 -0.056793 -0.0448302 -0.0934738 -0.123128 -0.0949477 -0.0802242 -0.0860426 -0.0633074 -0.0925079 -0.115794 -0.117699 -0.0958465 -0.0893309 -0.0320526 0.0136734 0.0023552 0.0117675 0.00478528 0.000369803 0.007998 0.000590422 0.0135912 0.0123633 -0.0190105 -0.0180778 -0.0261294 0.014276 -0.00554684 -0.0150693 -0.052364 -0.0422008 -0.0786388 -0.0792703 -0.0744942 -0.0937623 -0.100761 -0.115616 -0.0875749 -0.0703714 -0.0793872 -0.0448461 -0.0049009 0.0138294 0.01224 0.0167367 0.000552147 0.0182221 0.00957086 0.0055987 0.0156972 0.0159983 -0.0169065 -0.00525818 -0.00249286 0.0263812 0.00999531 0.00994202 0.0148336 -0.0166216 -0.0391211 -0.0732199 -0.0702718 -0.11478 -0.103759 -0.0850163 -0.0567396 -0.017047 -0.015592 -0.0259416 -0.00450209 0.013474 0.0045296 0.00421976 0.0173001 0.00825324 0.00180833 0.0120182 0.00680042 -0.00371083 0.00205305 -0.00919073 -0.0306555 -0.0145151 0.0156591 0.00301741 0.031977 0.00637865 -0.0141581 -0.0358994 -0.0550194 -0.0596803 -0.0611237 -0.0466783 -0.00888979 0.00405604 0.0126071 0.00567598 0.0122644 0.00341139 0.0151073 0.00472067 0.0182186 0.0134303 0.0142491 0.00976653 0.00682872 -0.0236364 -0.0136963 -0.00744057 0.0303984 0.00623081 0.0148785 0.0481026 0.0301611 0.024265 -0.000859634 0.0259146 0.0217389 0.0290369 0.0226924 0.0107902 0.016584 0.0287661 -0.00593792 -0.00574174 -0.00266507 0.0147874 0.000801308 0.00891955 0.00569383 0.00626175 0.0166411 0.01097 0.00458197 0.00443652 -0.0108912 -0.00343005 0.0366904 0.0133885 0.00786901 0.011555 0.00935234 0.0132663 0.0441423 0.0337237 0.0358524 -0.00355856 -0.0214251 0.00946581 -0.00845924 -0.02577 -0.0119511 -0.0246011 0.00367544 0.00803489 0.0130422 0.00797318 0.0143414 0.0180409 0.00355269 0.00531983 0.000694017 0.0122319 0.00491114 0.00645482 0.00947665 0.00143523 0.0147231 0.0120851 0.0127933 0.00343703 0.0147165 0.00514566 0.0158309 0.0110041 0.012405 0.013752 0.010033 0.00159249 0.00329587 0.00363676 0.0110107 0.0140977 0.0102256 0.00115269 0.0066003 0.000373567 0.00539691 0.00927394 0.0136485 0.013411 0.0164489 0.00708659 0.00288015 0.0156032 0.00814439 0.0158584 0.0140309 0.00734306 0.0042307 0.00361625 0.0088727 0.011793 0.0139729 0.0160891 0.000609334 0.013694 0.0061647 0.0134362 0.0112223 0.00187368 0.0177803 0.0124106 0.00274987 0.0171223 0.00904863 4.7536e-05 0.0151854 0.0026333 0.0130908 0.0147754 0.00808285 0.0143154 0.0120167 0.000166853 0.017497 0.0133935 0.00247236 0.00768202 0.0109275 0.00988719 0.0147921 0.0064221 0.0159421 0.00692653 0.00199088 0.00896564 0.00241464 0.00705203 0.0119775 0.0116803 0.00494658 0.0112275 0.0123328 0.0033197 0.011588 0.004171 0.0133602 0.0109781 0.00130154 0.0122231 0.0116581 0.0112487 0.00603497 0.0139664 0.0130762 0.00878112 0.0083667 0.00884995 0.00287338 0.00162664 0.00217259 0.00511185 0.00201487 0.0112255 0.00585395 0.0126337 0.0128023 0.00179604 0.00110226 0.00257669 0.00662577 0.00588957 0.0167485 0.00607362 0.0101227 0.0145399 0.0141718 0.00533742 0.0165644 0.00515337 0.0130675 0.0160123 0.000736196 0.0090184 0.0103067 0.00570552 0.00423313 0.0154601 0.0163804 0.0121472 0.000736196 0.00478528 0.000368098 0.00184049 0.00680982 0.00625767 0.0128834 0.00496933 0.0128834 0.00368098 0.0139871 0.00533264 0.00588754 0.00920247 0.000921678 0.000369961 0.0167485 0.0165644 0.0167485 0.00754601 0.00202454 0.0066275 0.00295185 0.0158304 0.0173009 0.0143558 0.00809816 0.00533738 0.0138035 0.00846612 0.0123312 0.0097546 0.00110429 0.00699387 0.0167485 0.00773006 0.00496933 0.00128932 0.0169347 0.0108733 0.0169224 0.00478084 0.0125217 0.01823 0.0158282 0.0136182 0.0104889 0.00993767 0.000368189 0.00590753 0.00539019 0.00848949 0.0169307 0.0117786 0.00330831 0.0154574 0.0112221 0.00239434 0.00477234 0.0156491 0.00699546 0.000183646 0.00220859 0.0104908 0.00276315 0.0105054 0.0183108 0.00501707 0.00534006 0.0167129 0.0182048 0.00460265 0.0150984 0.00918224 0.0158218 0.0132146 0.00917111 0.00221289 0.00244174 0.016708 0.00211757 0.00304611 0.00692743 0.0053051 0.00161281 0.0145126 -3.24227e-05 0.0148433 0.00660272 0.0102939 0.0149076 0.00239264 0.0129057 0.00728149 0.00461449 -0.00336217 0.0150704 0.0154474 0.0193492 0.0568244 0.0146387 0.0109668 0.0064753 0.00460056 0.032358 -0.00602044 -0.00781641 -0.0019393 0.00969078 -0.0183067 0.00463099 0.0276739 0.0132636 -0.00708298 -0.0107519 -9.89662e-05 0.0157814 0.0010676 0.0160088 0.0093865 0.0149461 0.00891909 0.00347278 -0.00167058 0.00969091 0.0296591 0.00177203 0.0452242 0.0346509 -0.0131803 -0.00584339 0.0181001 -0.0340547 -0.00475646 -0.0571589 -0.0547553 -0.0259938 -0.0147877 0.027453 0.0121442 0.0307165 0.0124207 -0.0197625 0.0135861 0.0110037 0.0117672 0.00147125 0.000368098 0.00499623 0.00322704 0.00272808 -0.0106789 -0.00322029 0.0402799 0.00576777 0.0386383 0.0122379 0.0479462 -0.006793 0.0198416 -0.00417252 -0.00539727 -0.0355992 -0.0111104 -0.061212 -0.00946236 -0.00530134 0.0575475 0.0255301 -0.0143922 -0.0258089 0.00236236 0.0103007 0.0125126 0.00257661 0.00809816 0.00203629 0.012783 0.00302227 -0.0105971 0.00930912 0.0168054 0.050074 0.0139337 0.0251977 0.0372285 -0.000435222 -0.0532325 -0.0380069 -0.0874954 -0.0604526 -0.0518911 -0.0190432 -0.0387978 -0.000819411 0.0381291 0.00922613 0.00265977 -0.0262921 0.0102635 0.00993513 0.012698 0.00588956 0.0130675 0.00515717 0.00982606 0.0124289 0.00965782 0.00182032 0.0263123 0.0109397 0.0365441 0.019648 0.0621457 0.0104025 -0.0415274 -0.0867228 -0.105321 -0.0642278 0.00669732 -0.00668077 0.00757036 0.0315301 0.0462096 -0.0110809 -0.0226751 -0.0274488 0.00859386 0.00938423 0.00864942 0.011227 0.0158282 0.0149086 0.0155065 0.00783701 -0.0212861 0.00676408 -0.00354328 0.0268677 0.0283326 -0.0144215 0.0258097 -0.00537582 -0.0509943 -0.0280851 -0.0510506 -0.0767483 -0.0596151 0.0058908 -0.000415416 0.0400159 -0.00140057 -0.0144921 0.0130785 -0.0183704 0.0113494 0.000549121 0.0117788 0.00607362 0.00276074 0.00478528 0.0145589 0.0140737 -0.00460828 -0.0303325 -0.011749 0.00909941 0.00209833 0.0331193 -0.0055045 0.015518 -0.021033 -0.0139284 -0.0200771 -0.0258851 0.00355524 0.00370128 0.00775806 0.0183673 0.00667145 -0.00522747 -0.00643331 -0.0260333 0.00566167 0.00348891 0.0160123 0.00699387 0.0139877 0.0143558 0.000367841 0.0131402 -0.0147313 -0.0360231 -0.00511881 0.00752068 -0.00965735 0.000685923 0.00108125 0.0288957 0.0527545 -0.0173214 0.0154047 0.0307131 0.0313158 -0.00012068 0.0143238 0.0249876 0.0249392 0.0128769 -0.0266064 -0.0213146 0.00475807 0.0141535 0.00588957 0.00680982 0.00128834 0.00331288 0.00404361 0.0169249 -0.0167985 -0.0457914 -0.0256426 -0.00339141 0.00777598 -0.0218379 -0.0382428 -0.020465 -0.0151715 -0.0331829 0.0238412 0.0170854 0.0291022 0.0600555 0.0374985 -0.00881316 0.00389745 0.00772027 -0.00943048 -0.0257153 0.0146093 0.0115748 0 0.00828221 0.0165644 0.0097546 0.000176115 0.0171252 -0.0134604 -0.0303525 0.000512924 0.0106441 -0.0138874 -0.0509145 -0.0270869 -0.0130127 -0.0487826 -0.0358958 -0.0114208 -0.0031926 0.0420971 0.00146008 -0.0288878 -0.0313646 0.0142539 -0.0272882 -0.0277318 -0.0415787 0.0029917 0.0165418 0.0156442 0.0160123 0.0106748 0.0119632 0.00404431 0.0125101 -0.0207858 -0.0146878 -0.0152833 -0.0452908 -0.0461107 0.00175509 -0.0156926 -0.00388399 -0.0162479 -0.00601807 0.022327 0.00981813 -0.00212546 -0.00291497 -0.033308 -0.0532371 0.00502494 -0.0215001 -0.0405741 -0.0314711 0.0138523 0.00401531 0.00680982 0.00478528 0.0134356 0.0136196 0.00349203 0.0115933 -0.0319598 -0.0423266 -0.0659051 -0.0748227 -0.0511591 -0.0318677 -0.0166772 -0.00728228 0.0443665 0.0217276 0.0573511 0.0420498 -0.00417777 -0.038121 -0.0395706 -0.0282674 -0.0277707 -0.01882 -0.041535 -0.0389922 0.0152134 0.00972132 0.0108573 0.00220859 0.00496933 0.0112271 0.0130333 0.0160176 -0.0599208 -0.0850283 -0.10049 -0.0718674 -0.0714303 -0.0210153 0.0205817 0.0188354 0.00806675 0.0242969 -0.0120922 -0.0148334 -0.0378604 -0.0907463 -0.0794304 -0.0546949 -0.0298542 -0.0334427 -0.0381575 -0.0269378 0.00851869 0.0156353 0.0115917 0.0147239 0.00625795 0.0169395 0.0169922 0.0154518 -0.102134 -0.112776 -0.135069 -0.097286 -0.11819 -0.0462941 -0.0233299 -0.0283909 0.00421533 -0.00825274 -0.0314788 -0.0282631 -0.088132 -0.121456 -0.111747 -0.0818096 -0.0689561 -0.0527099 -0.0411764 -0.0427613 0.0148922 0.0137715 0.00790658 0.00276074 0.00092274 0.0154666 0.0037548 0.00632855 -0.128871 -0.161664 -0.121095 -0.0924879 -0.0954458 -0.0529594 -0.0457296 -0.0523151 -0.0370367 -0.0548675 -0.0549353 -0.0866509 -0.108848 -0.129916 -0.121389 -0.0967332 -0.0949321 -0.0454839 -0.0468138 -0.0401865 0.00201821 0.00163113 0.00404151 0.0128834 0.0165702 0.00341298 0.014124 0.0143293 -0.120196 -0.164227 -0.116912 -0.100818 -0.0958469 -0.115518 -0.0324818 -0.0496892 -0.0772876 -0.0997502 -0.11539 -0.115524 -0.126337 -0.129493 -0.128353 -0.118866 -0.0747711 -0.0645254 -0.0520848 -0.0277394 0.00261081 0.00619508 0.0123237 0.00625767 0.00329832 0.00968181 0.0143484 -0.000209728 -0.0761785 -0.113048 -0.101982 -0.0782121 -0.0951157 -0.117345 -0.0704596 -0.0774537 -0.0724795 -0.0826662 -0.0799855 -0.128178 -0.132616 -0.124332 -0.111113 -0.109189 -0.0664948 -0.0687418 -0.053206 -0.027248 0.0138392 0.00138612 0.0119517 0.0108586 0.00302496 0.0107852 0.014382 0.00112868 -0.0233838 -0.0253728 -0.0304424 -0.059227 -0.0675535 -0.06553 -0.0742917 -0.0876074 -0.033039 -0.0401846 -0.0837104 -0.125988 -0.104198 -0.114551 -0.114504 -0.0924791 -0.06764 -0.0648384 -0.0461144 -0.00913418 0.00868093 7.97905e-05 0.0104478 0.00367936 0.0128898 0.000646069 0.00820914 0.0170884 -0.00310733 -0.0308225 -0.0202806 -0.0156387 -0.00330743 -0.0547483 -0.0715894 -0.0407693 -0.046117 -0.0472319 -0.0726052 -0.0702385 -0.0817156 -0.0791386 -0.0866059 -0.0840891 -0.0526707 -0.0320006 -0.0271993 -0.0099979 0.00044955 0.00392191 0.00195162 0.0137975 0.00402997 0.0146607 0.00622074 0.0171209 0.00316452 0.00482063 0.0333409 0.0353302 -0.00156979 -0.00883701 -0.0647099 -0.0402815 -0.0235942 -0.0433515 -0.0252849 -0.0644472 -0.0649629 -0.0395995 -0.0551381 -0.0390798 -0.0271137 -0.0129953 -0.00384349 -0.00728842 0.00168456 0.00741533 0.0142815 0.00514611 1.80456e-05 0.0158714 0.0165777 0.00728681 0.00729424 0.0132757 0.00936774 0.00216441 0.0107952 0.00134333 0.0125976 0.0156089 0.0123445 0.0163882 0.0149134 0.00935989 0.00689797 0.014984 0.0179406 0.0119863 -0.000872593 0.000631399 0.00335442 0.00208145 0.00151254 0.0121237 0.0120582 0.00789967 0.0167849 0.00305529 0.00313837 0.0136198 0.00849971 0.0184161 0.00232826 0.0134252 0.00237114 0.0172699 0.0109052 0.00895713 0.0153618 0.0170895 0.00761503 0.00209519 0.0121579 0.00689431 0.0148208 0.0167799 0.00415599 0.00341618 0.00500479 0.00550712 0.0174134 0.00368839 0.00375943 0.00863821 0.0153068 0.0106556 0.00235521 0.0106205 0.00660522 0.00130189 0.016046 0.00309095 0.00348369 0.012829 0.0107792 0.00913055 0.0125475 0.0117193 0.00468998 0.0173707 0.0118659 0.00450713 0.0182616 0.00296425 0.007108 0.00514977 0.0129105 0.0161215 0.0152782 0.00435748 0.0015982 0.00127136 0.00810038 0.00921677 0.00556844 0.0165698 -3.22728e-05 0.00973835 0.00311881 0.012351 0.00287709 0.00208746 0.00193366 0.016639 0.00132521 0.0111111 0.00305881 0.00459702 0.00363251 0.000735931 0.013645 0.00686099 0.0132597 0.0112263 0.0149097 0.000372944 0.0108403 0.00764037 0.00493628 0.00938536 0.00294479 0.00294479 0.0141718 0.0163804 0.0143558 0.0121472 0.00570552 0.00386503 0.00239264 0.00883436 0.00441718 0.00496933 0.0167485 0.0134356 0.00128834 0.0130675 0.00552147 0.00184049 0.00625767 0.0160123 0.00257669 0.00699387 0.00294479 0.00312883 0.00220859 0.0108589 0.0117791 0.0154601 0.00791411 0.00312883 0.0152761 0.00533741 0.0097545 0.011411 0.0101226 0.00680673 0.000916228 0.0128834 0.00110429 0.00791411 0.0132515 0.0093865 0.0058866 0.00201341 0.0128815 0.0110427 0.0126994 0.00736256 0.00718387 0.0164018 0.00756745 0.0009262 0.0158282 0.00202454 0.0136196 0.0117791 0.00220859 0.00331288 0.0130654 0.00274578 0.00951271 0.0106653 0.00312638 0.0163655 0.00974076 0.01417 0.0150938 0.00350159 0.0141738 0.00533709 0.00218305 0.0148171 0.0104489 0.0101244 0.0171208 0.0167742 0.0148003 0.0045318 0.0163186 0.0020354 0.0110519 0.0167513 0.00404952 0.015092 0.00773006 0.00326988 0.00032913 0.00583132 0.0119461 0.00949967 0.0143386 0.010852 0.0110169 0.000532544 0.00738729 0.00332927 0.000182801 0.0174733 0.0159072 0.00207776 0.00433388 0.00204326 0.0134861 0.0102452 0.0130397 0.0181785 0.0134399 0.0156593 1.24686e-05 0.0156645 0.0110399 0.0161957 0.00165644 0.00383287 0.0136505 0.00377021 -0.000114011 -0.00110784 -0.0185502 -0.028947 -0.0237404 -0.0252563 -0.0166934 -0.020515 -0.0484762 -0.0243109 -0.0387421 -0.041794 -0.0118524 -0.0089118 0.0135831 -0.00305274 0.0349229 0.0220228 -0.0271018 -0.00819101 0.0149887 0.00113014 0.0176525 0.00165176 0.00404908 0.00503781 0.014271 0.0156661 -0.00765824 -0.015787 -0.0331924 -0.0504324 -0.0496186 -0.0548816 -0.0421828 -0.0619666 -0.0606488 -0.0540638 -0.0619107 -0.0655659 -0.0418182 -0.0250622 -0.00880891 -0.00849188 0.00267827 -0.0348664 -0.0086445 -7.74019e-05 0.0103123 0.013239 0.00146799 0.0178533 0.00331288 0.0146247 0.00593363 0.0107421 -0.0166837 -0.0243266 -0.0295008 -0.0460469 -0.0436661 -0.0581712 -0.065491 -0.0727712 -0.0667541 -0.0746871 -0.0691648 -0.0666754 -0.0629467 -0.0289364 -0.0427053 -0.008111 0.0128189 -0.0341416 -0.0335844 0.0138983 0.0169241 0.0171145 0.0126975 0.00993876 0.0171166 0.00181449 0.00108616 0.00951461 -0.0115258 -0.0391439 -0.0443926 -0.056704 -0.0477695 -0.0445935 -0.0594489 -0.0927635 -0.0729549 -0.0731187 -0.0517092 -0.0913749 -0.0663707 -0.00756876 -0.0300322 -0.006608 0.0141089 -0.0356987 -0.0107479 -0.00823545 0.0152226 0.00717967 0.00846551 0.011227 0.00515337 0.00489989 0.00887276 0.015808 -0.025904 -0.0420055 -0.0617146 -0.0622894 -0.0565295 -0.0691394 -0.0579206 -0.0633988 -0.0490993 -0.0385695 -0.0613382 -0.0339946 -0.0268368 0.0166851 0.0301219 -0.00498076 0.0392348 -0.00409981 0.00158952 -0.0125615 0.00738495 0.000362945 0.00846578 0.014908 0.00386503 0.00624699 0.0154601 0.000345582 -0.0260201 -0.0547682 -0.058641 -0.0712449 -0.0597457 -0.0708616 -0.0331257 -0.0417026 -0.0302398 -0.00769218 -0.0216263 0.00666854 0.0295954 0.0451791 0.0584133 0.00608344 0.0218656 0.00876917 0.0262372 0.0249689 0.011625 0.00625718 0.000183868 0.0123313 0.00257669 0.0139877 0.000371945 0.0162941 -0.0305101 -0.0605736 -0.0471473 -0.0772325 -0.0701668 -0.0471007 -0.0320924 -0.00658902 -0.0283076 -0.00102916 0.0227255 0.0496505 0.0447394 0.0710762 0.047666 0.0294292 0.0245324 0.0222761 0.0171247 0.00802735 0.0145194 0.00311907 0.00331294 0.0130675 0.0173006 0.0152761 0.0133236 0.017087 -0.0389935 -0.0784334 -0.0772723 -0.049183 -0.0284356 -0.0151193 0.00844425 -0.00824586 0.00514663 -0.00543883 0.0253523 0.0155471 0.0148445 0.0378801 0.0166841 0.00655022 0.0118935 0.0188405 -0.028887 0.00401317 0.000708555 0.0161888 0.00110429 0.011227 0.0174847 0.00496933 0.0113899 0.0117202 -0.0360287 -0.0707372 -0.0443934 0.00187041 0.00821859 -0.00363769 -0.0153817 -0.00107254 0.0193286 0.00881943 -0.00451655 0.0140857 0.000942818 -0.00105185 -0.00229742 -0.0101441 0.00681349 -0.0387162 -0.0227579 -0.00468127 0.0152514 0.000176479 0.00828221 0.0145399 0.0128834 0.00257669 0.00901242 0.0132371 -0.0257161 -0.0429352 0.0126086 0.0156197 0.0223123 0.00596254 0.00484057 0.0186263 -0.00862538 -0.00694639 -0.00142219 -0.01361 -0.0188645 -0.00908793 -0.0342265 -0.0201346 -0.00214429 -0.0119873 -0.0260926 0.0284622 0.00107739 0.00460095 0.0161963 0.00478528 0.0132515 0.00239264 0.00422953 0.00598997 0.00976014 0.0145913 0.0261951 0.0221815 0.00672951 0.006723 -0.0059536 -0.0129265 -0.00686335 -0.0102506 -0.0135122 0.00867854 -0.00884376 -0.0174048 -0.0110324 -0.0250903 -0.0315647 -0.0229865 -0.0413984 0.0199585 0.00276289 0.010672 0.00257669 0.00496933 0.000920245 0.0136196 0.00257212 0.0145209 0.0798584 0.0238699 -0.0070587 0.0181123 3.32904e-05 -0.000648077 -0.0223685 -0.0531062 -0.0408072 0.00177526 -0.00764986 0.0325708 -0.0108161 -0.0228046 -0.0129338 -0.0320167 -0.0513199 -0.0491433 -0.0254226 -0.00140796 0.00386533 0.00441574 0.0112268 0.0108589 0.0145399 0.0101234 0.00810859 0.0176755 0.105697 0.0293209 0.011881 0.0091389 -0.0034105 -0.0374329 -0.0494679 -0.035576 -0.0248535 0.00566488 0.00662572 0.0173849 -0.0234184 -0.0348077 -0.0346604 -0.0225323 -0.0118773 -0.00884203 -0.0201622 0.00874354 0.00768714 0.00128733 0.0145395 0.00404908 0.0156446 0.0158408 0.00685414 0.0117225 0.0546023 0.0601027 0.053902 0.0200754 0.0250922 -0.0333958 -0.00185896 0.017153 0.0291986 0.0215959 0.029105 0.0243257 -0.00725607 -0.0256418 -0.0230193 -0.00211687 0.00531315 -0.0359483 -0.00311151 -0.0107112 0.0163285 0.0154587 0.00699295 0 0.0125213 0.0143869 0.0125994 0.0136007 0.0384579 0.0443829 0.0252725 0.0453493 0.0388151 0.0101712 0.0251472 0.0330063 0.0212916 0.00816972 -0.01014 -0.00145819 0.0204247 0.00228903 -0.0454789 -0.0301955 -0.0223551 -0.0264604 0.00242811 0.00948821 0.00915146 0.0125132 0.00625674 0.00828221 0.00314774 0.0114734 0.00919371 0.00717701 0.0389715 0.0151372 0.0222703 0.0695633 0.0527666 0.0274129 0.027254 -0.00437868 -0.0271788 0.0110242 0.000996715 -0.00290711 -0.0122081 -0.0492235 -0.0191848 -0.0351259 -0.0198928 -0.0177319 -0.0109605 0.00777728 0.0084387 0.0095201 0.00441432 0.00644172 0.0176877 0.00467372 0.0163756 0.0144117 0.0176669 0.0284875 0.0327111 0.0701411 0.0587627 0.0191585 0.0147515 -0.0166881 -0.0239629 -0.0198683 -0.0294163 -0.0218744 -0.022706 -0.00753967 -0.0425679 -0.0471528 -0.0322754 -0.0246815 -0.0226682 -0.0112693 0.0109237 0.0108472 0.00439399 0.00460051 0.016947 0.0142048 0.00369346 0.00982894 0.0195045 -0.00443656 0.0280513 0.0497925 0.0520229 0.0637146 0.0304067 -0.0110565 -0.0178996 -0.0309285 -0.000207036 0.00124421 -0.056274 -0.0701786 -0.0458644 -0.0238907 -0.030835 -0.0307698 -0.0236452 -0.007621 0.0170767 0.00221943 0.00265665 0.00312021 0.0130313 0.0159685 0.0174622 0.0122967 0.0222382 0.0360711 0.00591761 0.047868 0.0531653 0.0492547 0.029258 0.00921514 0.0029273 -0.0156581 0.00334952 -0.0706747 -0.0654795 -0.080331 -0.0392085 -0.0437595 -0.0311172 -0.0295141 -0.0278298 -0.0126968 0.00446506 0.00246629 0.00741413 0.0141281 0.00435093 0.00812928 0.00988293 0.0132705 -0.0135516 0.00419352 0.01221 0.0357608 0.0367465 0.0374629 0.0320498 0.00678594 0.0025936 -0.0109985 -0.0453875 -0.05159 -0.0467027 -0.0263239 -0.0282379 -0.0130161 -0.0181767 -0.0140001 -0.0243641 -0.0105701 0.00403572 0.0176648 0.00865107 0.0113003 0.00366449 0.0162769 0.00543342 0.00365966 0.0128568 0.00497531 0.0049739 0.000637882 0.00213987 0.011139 0.00567578 0.00185601 0.0104362 0.015282 0.0142483 0.00393929 0.0102306 0.0162312 0.00643009 0.0160011 0.013091 0.00779844 0.00523832 0.00866413 0.00995618 0.00444798 0.00922113 0.0150356 0.0143459 0.01587 0.00763625 0.0171452 0.0080097 0.0155389 0.00798535 0.00012473 0.00394581 0.0122867 0.0103847 0.0163381 0.00468918 0.0058885 0.00832004 0.0101266 0.000954692 0.0123467 0.010358 0.00801615 0.00925755 0.0153972 0.00468593 0.00344367 0.00895041 0.0131532 0.004305 0.0110504 0.00552208 0.00643648 0.00694801 0.010503 0.00141299 0.00282103 0.00126501 0.000725732 0.00414703 0.00269213 0.00190905 0.0016125 0.0176165 0.00837575 0.0165424 0.0165363 0.0173954 0.00094781 0.00631392 0.00299198 0.00426804 0.00169295 0.00758848 0.0161053 0.0163927 0.0110431 0.0051294 0.00828041 0.0174848 0.00202569 0.0132597 0.00552925 0.0152634 0.000527847 0.00745939 0.00358912 0.0108557 0.0131496 0.0168875 0.00494009 0.0110752 0.0014885 0.000161886 0.00732675 0.00627886 0.00142988 0.0159429 0.0177051 0.0147697 0.00867305 0.0152786 0.0169715 0.00517192 0.00145997 0.00404693 0.0171164 0.0145399 0.00423313 0.00607362 0.0121472 0.0128834 0.000368098 0.0106748 0.00717791 0.00478528 0.00423313 0.000736196 0.0176687 0.00496933 0.000184049 0.00736196 0.0136196 0.00552147 0.00736196 0.0152761 0.00552147 0.00312883 0.0121472 0.00110429 0.0147239 0.0138037 0.00147239 0.00552147 0.0171166 0.00331288 0.0176687 0.0125153 0.0161958 0.00367693 0.010305 0.00220861 0.0040495 0.0084668 0.0160123 0.00202454 0.0110429 0.0115951 0.000552147 0.0174846 0.00239154 0.0147225 0.0152759 0.000368098 0.00423311 0.00533727 0.000183482 0.0062571 0.00404892 0.00736196 0.00478528 0.00220859 0.0145399 0.0182209 0.00386503 0.000367311 0.000546377 0.0130538 0.0128743 0.0143865 0.0171219 0.00221012 0.00441501 0.010302 0.00441271 0.0128764 0.0139808 0.0174732 0.0102879 0.00512944 0.0182129 0.00532776 0.0136119 0.0182143 0.0180167 0.00587798 0.0135998 0.0163719 0.00607229 0.00496869 0.0125153 0.0138037 0.00625595 0.0066077 0.0100703 0.0058579 0.00703717 0.0143483 0.00865474 0.00130212 0.00437658 0.0105386 0.0159275 0.0146776 0.0140843 0.0142208 0.0173666 0.00644465 0.00182029 0.00832115 0.00287045 0.0152161 0.00342608 0.0144658 0.0043294 0.00802235 0.0106307 0.00918731 0.00257601 0.00570552 0.0106588 0.00894196 0.0170388 -0.00361082 0.00521261 -0.00677581 0.00898759 0.0218138 0.0387401 0.0314809 0.0254189 0.00174738 0.00238677 -0.00612491 -0.0148063 0.0161832 0.000360149 -0.00689484 -0.0315484 -0.0441521 -0.0309605 -0.0186228 -0.00404523 0.00927039 0.0034366 0.0126605 0.00845956 0.0161963 0.00125938 0.00327796 0.0166271 -0.0114223 -0.0171993 -0.0129326 0.0145326 0.0255798 0.0250439 0.0147873 0.0102996 0.00631502 0.00742688 0.000791035 0.00637497 0.0127342 -0.00201454 -0.00166825 -0.00505876 -0.0370253 -0.0557286 -0.0543955 -0.0228794 0.0137676 0.00162237 0.000169533 0.00551975 0.00883436 0.000531875 0.0144536 0.000130384 -0.0271786 -0.0147414 -0.00177431 0.00133611 0.0206762 0.0243632 0.00697376 0.00603454 0.0119055 0.0032571 0.0173245 0.0352608 -0.0143044 -0.0168446 0.00104887 0.00733231 0.0127414 -0.0258015 -0.0467329 -0.0329295 0.00856989 0.0112215 0.0136166 0.00331271 0.0169325 0.00919374 0.0161164 0.0148549 -0.0440881 -0.025313 -0.0177247 0.0175538 0.00956051 0.00593989 0.00116613 0.00939879 0.00293277 0.0231588 0.0100462 -0.00032931 0.00135785 6.39544e-05 -0.00294059 -0.0171592 0.00730262 -0.00670787 -0.0326631 -0.0390212 0.0114743 0.0103032 0.0147226 0.000736183 0.00662577 0.00938378 0.0115328 0.017036 -0.0169225 -0.00638262 -0.0105171 0.00258832 0.0310093 0.015749 -0.0130954 0.000192227 0.00875248 -0.00230824 -0.00316128 0.0354566 0.0252237 0.00570677 -0.0151909 -0.00237058 -0.00796577 0.0104335 0.0140255 -0.0265734 0.00078919 0.00367932 0.0152752 0.0136196 0.0173006 0.00220817 0.0100824 0.00762318 0.00193565 -0.0247699 -0.0139466 0.0286849 0.0162255 -0.00861836 -0.0119622 -0.0170042 -0.011365 -0.00748667 0.00247078 0.0218218 0.0341972 0.0323522 0.0028665 -0.0126442 0.00712065 0.027 0.0264534 0.000953099 0.0102937 0.0180339 0.00625734 0.00809816 0.000368098 0.00331288 0.00476918 0.00211817 -0.0115791 -0.0313659 -0.0206662 -0.000800471 0.0150467 0.018244 -0.00980917 -0.0281158 -0.0228093 -0.037144 -0.0456558 -0.0256149 -0.00803256 0.020446 0.0166605 0.0037881 0.0184131 0.0231156 0.0344539 0.0341627 0.0122104 0.00162274 0.0143558 0.0126994 0.00460123 0.000552147 0.015085 0.0021274 -0.021991 -0.0333346 -0.0309884 0.0108446 0.0263699 0.0131943 0.0103141 -0.0274791 -0.0140722 -0.043426 -0.0493422 -0.0633079 -0.0435834 0.0070693 0.013589 0.0150525 0.0250361 0.0615946 0.0628847 0.0447179 0.00429456 0.00125967 0.014908 0.015092 0.00368098 0.00312883 0.0172983 0.00363209 -0.0159035 -0.0339716 -0.0174748 0.00717973 0.0314813 0.0646252 0.0147672 -0.0160808 -0.0360466 -0.0563613 -0.0687366 -0.0969978 -0.0759278 -0.021116 0.0218618 0.0141158 0.0235016 0.0260444 0.0251253 0.0406998 0.0110005 0.0143305 0.00570552 0.0134356 0.0154601 0.0167485 0.0158258 0.0143152 -0.00819158 -0.0288975 -0.0288993 0.0203541 0.0501382 0.0410327 0.017863 -0.0150875 -0.0401969 -0.0544342 -0.101942 -0.123477 -0.102331 -0.0894128 -0.0187215 -0.016295 0.0139977 0.0254617 0.0128245 0.0283758 0.0147034 0.00159501 0.00791411 0.00423313 0.000552147 0.0174847 0.00717786 0.0176407 -0.0420104 -0.0682078 -0.0156274 0.0173605 0.0465725 0.0386439 0.0165334 -0.026157 -0.0421957 -0.0649102 -0.112857 -0.101872 -0.0878755 -0.0321914 -0.0230381 0.00852301 -0.00271547 -0.0200723 0.00328366 0.0138102 0.0178553 0.0159687 0 0.0163804 0.00239264 0.0182209 0.00257299 0.00927814 -0.0340021 -0.0488155 0.00313628 0.0335351 0.0357219 0.0347263 0.0191317 -0.0516314 -0.0521268 -0.0897045 -0.0783723 -0.086902 -0.0449335 -0.000656372 0.0319534 0.000962875 0.0194091 0.012932 0.0283771 0.00917056 0.0142618 0.0107058 0.00824568 0.00570552 0.00423313 0.00294478 0.0115834 0.0139427 -0.0376433 -0.0179156 0.0198031 0.021323 0.0482932 0.0284539 0.0031996 -0.0251774 -0.0358014 -0.0711861 -0.0545885 -0.0183596 -0.0073825 0.0133849 0.0162954 0.00225129 0.0141618 0.00860995 0.001555 -0.0224896 0.000270675 0.0157671 0.0159094 0.0173006 0.00220877 0.00570814 0.0179705 0.0106317 -0.00496707 -0.0215646 -0.00779283 -0.0074876 -0.00619142 0.0111586 -0.000105329 -0.0328604 -0.022754 -0.0384879 -0.0250899 0.00984408 0.0317215 0.0246663 0.00926541 0.0115846 -0.0122716 -0.0364243 -0.0474662 -0.0172945 0.00878438 0.0151372 0.00826412 0.00570552 0.0165677 0.0104985 0.0101585 0.0152049 0.0389121 0.00633343 -0.0208432 -0.00611829 0.0110084 -0.00288497 -0.0119453 -0.0280305 -0.0190111 -0.02766 -0.0126598 0.0361417 0.0540279 0.0321458 0.0240117 0.0014139 -0.0286018 -0.0161661 -0.0425859 -0.0136566 0.0125618 0.00202881 0.0150411 0.0103067 0.0101278 0.00475166 0.00535152 0.00843986 0.016738 -0.00370643 -0.0124347 -0.0154405 -0.00462405 -0.00302982 -0.0347664 -0.027215 -0.00689774 0.0206981 0.0162303 0.0324611 0.0250362 -0.00249887 -0.0110802 -0.0237461 -0.0276367 -0.0197931 -0.0310105 -0.0141998 0.011291 -0.000957587 0.0165133 0.00993865 0.0169199 0.0118235 0.00099646 0.0128252 -0.0139581 -0.0308839 -0.0271002 -0.0127317 0.0132004 -0.0162106 0.00780624 0.00503048 -0.00853514 0.0135847 0.000590542 0.0127763 -0.0156482 -0.0161372 -0.0413818 -0.0525833 -0.0508357 -0.029534 -0.00509808 -0.0153889 0.0048622 0.00280648 0.00841178 0.0110366 0.0141502 0.00196442 0.00596836 0.014236 -0.026459 -0.0124021 -0.00818303 0.00170836 -0.00434487 -0.00882946 -0.017065 -0.000156828 0.0145157 0.00856575 -0.0220421 -0.00410804 -0.0425063 -0.0549183 -0.0327169 -0.0706482 -0.0314909 -0.0196655 -0.00325298 5.25669e-06 0.012637 -0.000304024 0.00479224 0.00126571 0.0179778 0.011679 0.0146966 1.97615e-05 -0.0160933 -0.0203342 0.00866561 0.0067803 0.00661448 -0.0207215 0.0118782 0.00752582 0.00110257 -0.046776 -0.0377242 -0.0552655 -0.058448 -0.0490326 -0.0459117 -0.0266583 -0.00617126 -0.00737747 0.000808101 -0.00756351 -0.00131066 0.00344122 0.00867488 0.0157601 0.00235998 0.0143834 0.002988 0.00687988 -0.00695553 -0.0326546 -0.0113533 0.0168525 0.0193448 0.0245212 0.000697702 -0.0129934 -0.0233081 -0.0448421 -0.0595235 -0.0466922 -0.0492363 -0.0500591 -0.0185149 -0.0183664 -0.00334754 -0.00535261 -0.0056087 -0.00190086 0.00103884 -0.000365478 0.00523348 0.00482438 0.0170123 0.0118344 0.00252735 0.00464283 0.00918146 0.000867067 0.00130986 -0.0027181 -0.00242949 0.00781594 0.0132413 0.000386512 0.0136395 0.00513769 0.0102406 0.00252688 0.0122638 0.0120414 0.00126426 0.00897481 0.0154109 0.00561647 0.0139001 0.0108064 0.00415445 0.0126918 0.0160244 0.0163317 0.00608365 0.00425547 0.0128512 0.0109478 -0.00213306 0.00022196 0.00675594 -0.003976 -0.000394175 0.0116269 0.0120462 0.0116505 0.014276 0.00875107 0.0130483 0.000298064 0.0109958 0.0117945 0.00459488 0.0110486 0.00427224 0.00943658 0.00821848 0.0108295 0.0100171 0.00641828 0.0121204 0.0161097 0.0120865 0.00755496 -0.000365437 0.00309795 0.00839641 0.0060903 0.0151319 0.00332101 -0.00498759 0.0084238 0.0160053 0.0174264 0.0161854 0.00386613 0.00551946 0.0164705 0.00914327 0.00454122 0.00554056 0.0182632 0.00842283 0.00570831 0.000181339 0.00941354 0.014815 -0.00156608 0.0133336 0.00174499 0.0101185 0.0131364 0.0151218 0.0115061 0.0173363 0.0123605 0.0173153 0.0105841 0.0116129 0.000414169 0.00945139 0.0146039 0.00496109 0.00239313 0.000737366 0.0139106 0.0164537 0.00289634 0.00065833 0.0171086 0.00679997 0.00791354 0.00807178 0.00438131 0.0161553 0.00639879 0.0117728 0.00272626 0.0143558 0.015092 0.00294479 0.0152761 0.0141718 0.0121472 0.0106748 0.00736196 0.00680982 0.0119632 0.00368098 0.00809816 0.0106748 0.0134356 0.0145399 0.0147239 0.0169325 0.00441718 0.00110429 0.00773006 0.00312883 0.0125153 0.0119632 0.0093865 0.0156442 0.0097546 0.0158282 0.015092 0.00423313 0.00736196 0.00993865 0.0128834 0.0126993 0.00901838 0.0086502 0.00459952 0.0125131 0.0147239 0.00128834 0.0119632 0.00754601 0.0182209 0.0138041 0.00717807 0.016012 0.00441721 0.00165644 0.00625771 0.0147244 0.0154617 0.0064433 0.0141722 0.0171166 0.0108589 0.00312883 0.00680982 0.0128834 0.0158282 0.00957198 0.00313328 0.0158396 0.0110424 0.00367875 0.00404041 0.0117745 0.00993625 0.00276299 0.0178531 0.00110417 0.00533684 0.00129394 0.00111039 0.000190508 0.00552034 0.0150909 0.0160156 0.0128896 0.0132585 0.0169442 0.017297 0.0167439 0.00938361 0.0141717 0.0147239 0.00386503 0.000738549 0.000580708 0.0151599 0.00516734 0.00515459 0.00991367 0.00882084 0.00348734 0.0180199 0.0173113 0.00643689 0.0172904 0.0112237 0.00314203 0.01823 0.00973675 0.011212 0.000361027 0.0158144 0.0123205 0.0117645 0.00239439 0.0110676 0.0152693 0.00956347 0.00201971 0.00644128 0.0165644 0.011799 0.00673737 0.0096551 -0.0174466 -0.0236467 -0.0124633 0.0178475 0.0146002 0.0141306 0.0228746 -0.0248613 -0.0386598 -0.0403224 -0.0551414 -0.0549942 -0.0648987 -0.0736228 -0.0771703 -0.0553478 -0.0526606 -0.0680421 -0.0527881 -0.0115693 0.00326218 0.0167145 0.00494538 0.000918477 0.00184049 0.01292 0.00957244 0.00484191 -0.0295508 -0.0398922 -0.00499771 -0.00479579 0.00242059 0.0348458 0.0252611 -0.0497695 -0.0716391 -0.0792321 -0.0854221 -0.0712559 0.00169769 -0.0225526 -0.0110772 -0.0503395 -0.0602081 -0.0689879 -0.0502833 -0.0281943 0.0110133 0.0128472 0.000733355 0.00975386 0.0174847 0.00849166 0.000995298 0.0136129 -0.0316337 -0.0453994 -0.0192892 0.00670012 -0.0147372 0.0183094 0.0311789 -0.0144381 -0.0285769 -0.0572951 -0.0372149 0.000273102 0.046562 0.0350124 -0.00694837 -0.0025354 -0.0268595 -0.0422521 -0.0414265 -0.0264062 0.0167256 0.0157994 0.00623964 0.011411 0.00496933 0.00718958 0.00283892 0.00144638 -0.0452672 -0.0292245 -0.00134324 0.0644284 0.0245266 0.0299428 0.0252001 -0.0174358 0.0062594 0.00131367 -0.00800761 0.0179168 0.00630425 0.0223657 -0.00352728 0.00926732 -0.0100171 -0.0250969 -0.0533348 -0.0276535 0.00921579 0.00623008 0.00642994 0.0126993 0.00644172 0.000187906 0.00797943 0.0116014 -0.0405875 -0.0325159 -0.000465588 0.00941319 0.0181566 0.0262969 0.0303607 0.0447512 0.0243814 0.0390875 0.00126836 0.0417179 0.0219819 0.0301606 0.00956047 0.0017998 -0.00530158 -0.0562273 -0.0839714 -0.0688506 0.00643573 0.00218382 0.000728648 0.0154601 0.0167485 0.0149086 0.00777795 0.0182802 -0.0503426 -0.0427959 -0.0102873 -0.0209721 -0.03171 -0.00573905 0.00995384 -0.0101663 -0.00817533 0.0357055 0.0330531 0.0452098 0.04984 0.0581803 0.0138326 -0.0143788 -0.0299013 -0.021665 -0.062695 -0.0379496 0.014172 0.0045823 0.00956769 0.0119632 0.0141718 0.015092 0.0127193 0.00578577 -0.0221521 -0.0206882 -0.0168231 -0.000235143 -0.0209921 -0.0195662 -0.00678528 0.0414657 -0.013942 0.00784415 0.0311901 -0.00213597 0.0417406 0.0375597 0.0345011 0.0379469 0.0102677 -0.00914041 -0.0283307 -0.0310142 0.0165378 0.00605726 0.015092 0.00276074 0.00791411 0.0108589 0.00258613 0.00965773 -0.00423424 -0.0211724 -0.0165642 -0.0186634 -0.0345478 -0.0253183 -0.0694437 -0.0327351 0.0104567 -0.0117023 -0.0149556 0.00263407 0.0038323 0.0360587 0.0109807 0.0431759 0.0105481 -0.0311498 -0.0441872 -0.0333891 0.00808541 0.00606921 0.0169325 0.0103067 0.00957055 0.0139877 0.00184339 0.010687 -0.0118349 -0.0432343 -0.00456925 0.00231034 0.0321019 -0.00697416 -0.0442546 -0.0650443 -0.0411194 -0.0536498 -0.0743474 -0.0704538 0.0038621 0.0411781 0.0241667 -0.00320674 -0.0257021 -0.0257076 -0.0546613 -0.0353996 0.016547 0.00349198 0.00717791 0.0103067 0.0176687 0.0121472 0.0158305 0.0158599 0.00577122 -0.0120084 0.00491776 -0.0146257 -0.00969724 0.0050861 -0.0116963 -0.0388197 -0.0680371 -0.0550424 -0.0470357 -0.0647953 -0.00654973 0.0586003 -0.00848521 -0.0131734 -0.027888 -0.0519161 -0.0405079 -0.0253814 0.00383822 0.00331178 0.00386503 0.0154601 0.00662577 0.00717791 0.00810096 0.00388181 0.0181424 -8.87955e-05 -0.00300822 -0.0214816 -0.0562874 -0.0152794 -0.0255697 -0.041792 -0.063395 -0.0725169 -0.0536909 -0.00536606 0.0187318 0.026753 0.0495512 0.0129582 -0.0241408 -0.0597143 -0.0407415 -0.0278477 0.0130445 0.00791001 0.00441718 0.0128834 0.0101227 0.0169325 0.00662261 0.0117686 0.0124964 -0.00149255 -0.0360406 -0.0594492 -0.0375111 -0.0215452 -0.0385403 -0.0411732 -0.0189559 -0.0436829 -0.0411509 -0.0106814 0.0354357 0.024492 -0.016916 -0.00822116 -0.00754136 -0.0253186 -0.0342078 -0.0416142 0.016728 0.0160071 0.0156436 0.00791411 0.0156442 0.00588923 0.0158196 0.00879355 -0.00622696 -0.0314298 -0.0449839 -0.0576009 -0.0608453 -0.0548388 -0.0291539 -0.00659393 -0.00748027 -0.00920022 -0.0269663 -0.0205407 0.0437514 0.0077111 0.0182698 -0.00587924 -0.0175902 -0.0261212 -0.0504252 -0.0429345 0.012853 0.00349333 0.00091873 0.00404908 0.0169321 0.00679937 0.0111696 0.00427162 -0.0136149 -0.0561237 -0.0549624 -0.0636133 -0.0683939 -0.0455377 -0.0473298 -0.0362338 -0.0180391 -0.0258552 -0.0413106 -0.0208533 0.0472461 -0.00744051 -0.00175244 0.00219117 0.00491733 -0.0214643 -0.0652664 -0.0380152 0.00529526 0.00901332 0.0172973 0.00533742 0.00827748 0.0165356 0.00652276 0.00710301 -0.0498791 -0.0505122 -0.0867584 -0.0514189 -0.0541286 -0.0338897 -0.043599 -0.0489734 -0.047159 -0.0459151 -0.031746 0.00228836 0.0253001 -0.0395927 0.0204393 -0.00846963 -0.0372979 -0.00926511 -0.0506476 -0.0344868 0.00580054 0.0101112 0.0147208 0.00809816 0.0126825 0.0111708 0.0173499 0.0165383 -0.0446844 -0.0602214 -0.0879258 -0.0878267 -0.0655872 -0.0341137 0.00177829 -0.0340318 -0.0262351 -0.061311 -0.0516216 -0.00509842 0.00922783 -0.0292618 -0.0210567 -0.0215682 -0.0379564 -0.0290101 -0.0391004 -0.0161494 0.000246922 0.0148695 0.0134323 0.00257669 0.00898826 0.0148115 0.00953929 0.0155261 -0.0466921 -0.0720101 -0.0864569 -0.0729241 -0.0392249 -0.0235183 -0.00538227 0.0354874 0.000215141 -0.0411052 0.00487598 0.00938007 -0.0307247 -0.0494385 -0.0180686 0.0129497 0.0110406 -0.0246062 -0.0388299 -0.00983469 0.00542247 0.0034601 0.00919173 0.00625742 0.0106533 0.0149655 0.0100181 0.0053708 -0.0400271 -0.0861923 -0.0554493 -0.0746969 -0.0837143 -0.0223177 -0.0167452 0.0517053 0.0395068 0.0117108 0.0034592 0.00531494 -0.0384981 -0.0144717 -0.00246441 0.0217082 -0.0100446 0.00809644 -0.0242812 0.0148287 0.0140355 0.0138986 0.00161597 0.000365579 0.0141412 0.00558015 0.0103347 0.00318172 -0.0337637 -0.0479137 -0.0765818 -0.0688662 -0.0842024 -0.0749419 -0.0227255 0.00589082 0.0502896 0.0485687 0.055769 0.0367849 0.00265994 0.034932 -0.00705996 0.013018 -0.00753054 0.0104251 -0.00527738 -0.00217893 0.0110797 0.00231101 0.00951908 0.00127664 0.0170788 0.0123943 0.0164868 0.017523 -0.018629 -0.0376243 -0.0474554 -0.0557033 -0.0426135 -0.0236185 -0.0141907 0.0112183 0.00217121 -0.0008377 0.0486969 0.0250748 0.0134809 0.0483089 0.00717861 0.00496357 -0.0236366 -0.0288714 -0.0181745 0.00174713 0.00816335 0.0125896 0.0144689 0.0172891 0.00772335 0.000875943 0.0127505 0.0143076 0.0118518 0.00834547 0.00663515 0.0020153 0.0140024 0.00726294 0.00333552 0.0179256 0.00800567 0.00480334 0.00617342 0.00400773 0.00105261 0.00486896 0.013371 0.0113929 0.0113182 0.00141413 0.00317723 0.00762688 0.0052112 0.00014107 0.015393 0.0101038 0.00331421 0.0143516 0.0147154 0.0157143 0.011434 0.012169 0.0122619 0.0181347 0.000888963 0.00852915 0.0160498 0.00384618 0.0134144 0.00472623 0.00881719 0.0108435 0.00844962 0.0171192 0.00406691 0.0149735 0.0137172 0.00807619 0.0108141 0.00120501 0.00285361 0.0129914 0.000112185 0.016557 0.0173022 0.00514705 0.0062499 0.0074864 0.00598895 0.016303 0.0137721 0.0115691 0.00895535 0.00820365 0.0178973 0.008529 0.00531565 0.0165661 0.00146157 0.00486884 0.0168866 0.00531555 0.0176751 0.0071936 0.00514304 0.018025 0.0163604 0.000338109 -5.67586e-05 0.00269518 0.0181847 0.010852 0.0115952 0.0161975 0.00184163 0.00919719 0.00585406 0.0159748 0.00662218 0.0133508 0.0125472 0.0179016 0.0166068 0.00466654 0.00344037 0.00457884 0.00831052 0.0127402 0.00704234 0.0150059 0.0166456 0.0125467 0.00256925 0.017299 0.0165635 0.00643381 0.00770512 0.00456259 0.00974421 0.0103062 0.00809816 0.00570552 0.00239264 0.00110429 0.00460123 0.0104908 0.00423313 0.00184049 0.0182209 0.0128834 0.0128834 0.0110429 0.0130675 0.00607362 0.0173006 0.0119632 0.00478528 0.0104908 0.00128834 0.00570552 0.00202454 0.00478528 0.00993865 0.00791411 0.00699387 0.00478528 0.0117791 0.000736196 0.00846626 0.00404908 0.0123313 0.00736194 0.00368081 0.0141717 0.00239269 0.0145383 0.0125133 0.00607362 0.00993865 0.00331288 0.00202454 0.0097546 0.00053081 0.00437239 0.014129 0.00496374 0.00423313 0.0121471 0.00883258 0.00496293 0.000545756 0.0126976 0.00680982 0.0125153 0.00773006 0.00257669 0.0123313 0.015092 0.00128373 0.00232888 0.0136757 0.0181694 0.00901546 0.00827459 0.0121324 0.015642 0.00477244 0.00938552 0.000542526 0.00145315 0.0157403 0.00745921 0.00214701 0.0102761 0.0169233 0.00439983 0.00549684 0.00767008 0.00308998 0.00603621 0.0104951 0.00221419 0.0132496 0.00386503 0.00276074 0.00460244 0.0117422 0.0127478 0.0156034 0.0140367 0.0178032 0.00790978 0.00307887 0.000187906 0.00451754 0.0168799 0.0160801 0.00639153 0.00530238 0.0106442 0.00936605 0.000888695 0.0145423 0.00914329 0.00207849 0.0157394 0.0139605 0.0119281 0.0151994 0.012825 0.00951562 0.00551902 0.00993865 0.005534 0.00705929 -0.000166882 0.0033051 -0.00263146 -0.0128132 -0.0269492 -0.017988 -0.0222248 -0.0142572 -0.0027587 -0.0182351 -0.0108637 -0.0102504 0.00112193 0.015106 0.0271146 0.0278663 -0.000833352 -0.0226967 -0.0179057 0.00127199 0.0120632 0.0137624 0.00611636 0.0156854 0.00347675 0.00110429 0.00720493 0.0129438 0.00743301 -0.00448294 -0.00385478 -0.0222426 -0.0156832 -0.0112358 -0.00754492 -0.0069807 0.00194707 -0.00466826 -0.0119918 -0.0262542 -0.0242293 0.00567135 0.0232805 0.00749671 0.0428056 -0.00547201 0.000916719 -0.00512611 -0.00128387 0.00926822 0.00485375 0.00693185 0.00128195 0.00625767 0.000383331 0.0123265 0.0121241 -0.00540489 -0.0207121 -0.0128641 0.000453244 0.00337938 0.00420905 -0.00183314 -0.00841041 -0.0207593 -0.00613348 -0.00305271 -0.00496624 0.002048 0.00350569 0.00594451 0.0153864 0.00936373 0.0226137 -0.010018 0.0153914 0.0127793 0.00346642 0.00347933 0.0167474 0.0182209 0.0106836 0.00501867 0.00527198 -0.0117433 0.0164232 0.00806469 -0.0059863 0.00456753 -0.00717516 -0.00991758 0.00296361 0.0107282 0.00244894 -0.0073891 0.00927494 0.0228286 -0.0175086 0.00035593 0.0246688 0.0386233 0.0339332 -0.00386058 0.0183405 0.0164953 0.00401874 0.00624798 0.0167484 0.0173006 0.011414 0.0112475 0.00113713 0.021496 0.0145 -0.00319114 -0.0214367 -0.00528219 -0.0059606 -0.00485465 -0.0127962 -0.00228038 0.00458009 0.0134624 -0.0232064 0.000599378 0.00190219 -0.00299782 0.0155004 0.0310945 0.0266288 0.010881 0.000610412 0.00852189 0.0101201 0.000914038 0.000920245 0.0152761 0.0156446 0.0164109 0.0037466 -0.00546364 0.00448584 0.00111656 0.00216894 -0.0059903 -0.00522752 -0.00516553 -0.0118928 -0.0199571 -0.0201953 -0.0306585 -0.00807678 0.0113534 0.00071964 0.0138038 0.0111536 0.0217747 0.0264893 0.015074 -0.00348088 0.00949206 0.0143388 0.00680746 0.0154601 0.00883436 0.000736196 0.00627908 0.00557469 0.0172539 -0.000281 0.0160922 -0.0153551 -0.0191091 0.0019941 -0.0197152 -0.00893452 -0.0325406 -0.0405139 -0.0295322 -0.017344 -0.00407823 0.0176975 -0.000892344 -0.0112023 0.000281047 -0.00171532 -0.0232163 0.00104299 0.0152102 0.00145905 0.0104905 0.0178528 0.0126994 0.0178528 0.0138272 0.00651557 0.0184387 0.0265136 0.023625 -0.0094504 -0.0131372 0.00428674 -0.00925282 -0.0350273 -0.0399632 -0.0274212 -0.0209074 -0.0184042 -0.0100146 -0.00673471 -0.00738997 -0.0307573 -0.00496985 -0.0218312 -0.00958345 -0.0208083 0.00456661 0.0152697 0.00680982 0.0158282 0.0160123 0.000184049 0.00978314 0.00777012 0.0162043 0.0237555 0.0236068 -0.00577179 0.00356225 -0.0120176 -0.0114486 -0.0397891 -0.0282042 -0.0154755 -0.004388 -0.0043188 -0.00571424 0.00200318 -0.0246713 -0.0202105 -0.0286505 -0.0369271 -0.0330712 -0.0178712 0.00162442 0.00202145 0.0145399 0.0169325 0.0121472 0.00368098 0.0077602 0.0035641 0.019078 0.0280555 0.0325669 0.00171576 -0.000543712 -0.00296589 -0.0183374 -0.0388281 -0.0206533 -0.0193863 0.00102399 -0.0130036 -0.00880533 -0.00798292 -0.001272 -0.0213729 -0.0204156 -0.0166428 -0.0469087 -0.0268967 0.00457772 0.00975237 0.000184049 0.0097546 0.00128834 0.0106748 0.0101504 0.000404963 -0.00961438 0.0147138 0.0377232 0.0231417 0.029704 0.0163114 0.021364 -0.00178108 -0.0148322 -0.00676688 -0.0126815 0.0056506 0.007583 0.0131432 -0.00589462 -0.0132473 -0.00412454 -0.0330664 -0.0327241 -0.0354894 0.0152513 0.0171088 0.0138037 0.0090184 0.0182209 0.00846626 0.00332627 0.018152 -0.0320003 -0.0265752 0.0351178 0.0353278 0.0514362 0.0470837 0.0277611 0.00763946 0.0154538 0.00470152 -0.0050624 0.00278253 0.00601802 0.00519142 -0.00180121 -0.0233282 0.00438503 -0.00625373 -0.0309592 -0.0281631 0.0163552 0.0114003 0.00920124 0.00846626 0.0158282 0.0165579 0.00338376 0.000471521 -0.0334359 -0.0538221 0.0210291 0.0317829 0.0457886 0.0253995 0.0510401 0.0154322 0.0161179 0.0051372 -0.00790801 -0.0146864 0.00692055 0.0191223 0.00953547 0.00826283 0.0239614 0.0101533 -0.0281719 -0.0194551 0.0146863 0.0139802 0.00238887 0.00920245 0.00109803 0.000715811 0.0176329 0.0108231 -0.0536003 -0.0540765 -0.0372492 -0.0068223 0.0114306 0.0277362 0.0517732 0.0300345 0.0270468 0.0133945 0.00239574 0.0273351 0.00226781 0.0198688 0.0072299 0.0236538 0.00213567 0.0140213 -0.00305803 0.00128528 0.0151982 0.0114045 0.00753915 0.000920245 0.011497 0.00925762 0.00656316 0.0033309 -0.070475 -0.094912 -0.0706105 -0.0668447 -0.0372143 0.000273074 0.0136775 0.00147948 0.00269463 0.00559581 0.0253897 0.0393487 0.0121495 0.0112861 0.0358011 0.0277812 0.0287609 0.00721258 0.0215035 0.0106072 0.0171742 0.015607 0.00643425 0.00570552 0.0146307 0.00134646 0.0013888 0.0159471 -0.0590167 -0.0746869 -0.10342 -0.0993095 -0.0845578 -0.0434057 -0.0223361 -0.0170555 -0.00752903 -0.0064581 0.00456219 6.08586e-05 0.0428909 0.042302 0.0376857 0.0181949 0.0338995 0.0142341 0.00106871 0.00791644 0.00490925 0.0176252 0.00183281 0.00331288 0.00166107 0.0160833 0.0170156 0.00189076 -0.0490331 -0.0693835 -0.0911243 -0.110207 -0.0923596 -0.0765968 -0.0589279 -0.0165465 -0.0198242 -0.00973353 -0.00363542 -0.00455372 0.0153144 0.0268221 0.0397298 0.0257157 0.0203313 0.0126561 0.00497221 -0.000538113 0.00150927 0.0128077 0.00265971 0.0160091 0.0108557 0.00911134 0.0116774 0.00125 -0.0505176 -0.0644624 -0.0684492 -0.0953215 -0.0931198 -0.0833255 -0.0861662 -0.0724713 -0.0573105 -0.0123651 0.0147805 0.0182143 0.0298167 0.0377177 0.0396627 0.0302522 0.0196982 0.0217118 -0.0220722 0.0162939 0.000135469 0.00892384 0.0168522 0.0122949 0.0153166 -0.000344705 0.0123248 0.00842912 -0.0323635 -0.0387288 -0.0397515 -0.0652968 -0.0884191 -0.0938289 -0.0640117 -0.0582279 -0.0418606 -0.0222491 0.015072 0.0324841 0.0254889 0.0404639 0.055832 0.0328331 0.00265977 0.01155 0.00116204 0.022282 0.0118923 0.00118926 0.00904886 0.014728 0.0110669 0.00474854 0.00228371 0.0120126 -0.0117169 -0.0176652 -0.0333204 -0.0458028 -0.0622653 -0.0316779 -0.0436048 -0.0479878 -0.0377652 -0.0199992 -0.00556249 0.0342415 0.0423567 0.0374263 0.0423791 0.0430057 0.0251117 -0.000307625 0.0193035 0.0181318 0.00895319 -0.000326683 0.0135606 0.00182391 0.00581739 0.0146092 0.0100005 0.00662548 -0.000708785 0.00659841 0.00311863 0.0119549 0.0125403 0.0170231 0.00272361 0.000591268 0.00443337 0.0149821 0.00930617 0.00969553 0.0117425 0.00513816 0.010196 0.0103824 0.0054484 0.00393485 0.00456878 0.00923614 0.00987392 0.00635501 0.00276025 0.00473127 0.00552409 0.0149068 0.0139809 -0.000633399 0.00174159 0.00621542 0.0153792 0.0159394 0.000159172 0.00516198 0.00642241 0.0042256 0.010592 0.00250073 0.000982043 0.00893271 0.00138744 0.0140059 0.00501442 0.0177032 0.0116339 0.0168274 0.00774763 0.0131044 0.00718785 0.0122143 0.0142666 0.0103902 0.00754763 0.0133523 0.00723921 0.00193095 0.0124865 0.0167002 0.00862305 0.0117391 0.0149499 9.27568e-05 0.0134986 0.00130786 0.012721 0.00887284 0.00990098 0.00143866 0.010528 0.0169316 0.00614329 0.0138002 0.0115499 0.00292508 0.016705 0.00107823 0.00114394 0.00703923 0.00979744 0.00403461 0.00386538 0.0173058 0.0060805 0.0148992 0.00400456 0.0179246 0.00501084 0.00628504 0.00488055 0.00480066 0.00879846 0.00353063 0.0115616 0.0143918 0.0150423 0.00834143 0.00301939 0.00999763 0.000457035 0.00765826 0.0170806 0.0176673 0.00533758 0.00900012 0.0135841 0.017957 0.00790015 0.0145385 0.00404908 0.0178528 0.0123313 0.00846626 0.0174847 0.0123313 0.0136196 0.0090184 0.00809816 0.000736196 0.00478528 0.0125153 0.000920245 0.00662577 0.000920245 0.00828221 0.0152761 0.0136196 0.00202454 0 0.00865031 0.0130675 0.00496933 0.00625767 0.00754601 0.0125153 0.000368098 0.0182209 0.00441718 0.000368098 0.0182209 0.00184047 0.00496918 0.0112269 0.00865035 0.00976039 0.0044247 0.0101227 0.00533742 0.00239264 0.00883436 0.00533742 0.0071799 0.00498207 0.0152833 0.00184132 0.00276074 0.0080982 0.0106753 0.00276236 0.00294641 0.00846671 0.0136196 0.00515337 0.0161963 0.00128834 0.011411 0.00828221 0.00276163 0.017123 0.0118042 0.00552251 0.0134378 0.00205132 0.00740079 0.00865177 0.00663633 0.0175024 0.00920335 0.0165625 0.00407488 0.0148045 0.000210359 0.0116002 0.00459826 0.0128814 0.0095309 0.000359059 0.0018463 0.0139827 0.0116056 0.0115997 0.0108586 0.0136196 0.00607362 0.0167504 0.00296396 0.0175675 0.00097665 0.0134505 0.0034578 0.0139663 0.00409775 0.0155186 0.0153462 0.0164604 2.02778e-05 0.00330943 0.0130888 0.00512285 0.0053514 0.00675466 0.00988025 0.0147269 0.00562189 0.00237175 0.00493284 0.0164853 0.0142453 0.0115209 0.0170981 0.00478463 0.00147239 0.0163978 0.0153621 0.00825544 0.00435341 7.02861e-05 0.00405055 -0.0153513 -0.0245257 -0.0273804 -0.0155231 -0.00407296 -0.000280948 0.0237018 0.0103662 0.0342095 0.0389005 0.0120837 -0.0231103 0.0134019 0.0217812 -0.00111777 -0.0190133 -0.0102225 0.0173344 0.0053965 0.0131602 0.0174789 0.00202454 0.014202 0.0129327 0.00620532 0.00410332 -0.000613616 -0.0175328 -0.0124741 -0.0313527 -0.0282486 0.00265856 0.00530621 0.0264599 0.00980316 0.0346847 0.0347334 0.0405471 0.0130345 0.0293975 0.0320989 0.0317119 0.0172912 -0.00390608 -0.0264175 0.00738108 0.00896591 0.0131744 0.00790713 0.0147239 0.00370243 0.0142554 0.0170441 0.00248049 -0.00367224 -0.0196964 -0.0252923 -0.035086 -0.0133316 -0.032963 0.0268318 0.00881834 0.00297841 0.0413787 0.0280622 0.036488 0.0190219 0.0343372 0.0316449 0.0261891 0.0043437 -0.000990841 -0.0152585 0.0166349 0.0159157 0.0142974 0.00864736 0.00754601 0.00737124 0.0129554 0.00981723 -0.026712 -0.0324661 -0.0368064 -0.0277161 -0.00724602 -0.00708959 -0.0141206 0.00799364 0.0190893 0.015302 0.000212433 0.00121456 0.0368345 0.0412387 0.0339332 0.0334722 0.0190907 0.00520666 0.00108828 -0.0136383 0.000547893 0.00210441 0.0154214 0.00754564 0.00699387 0.00349989 0.0111027 0.00466876 -0.0293908 -0.0280971 -0.0266336 -0.0123174 -0.0343614 -0.0299437 -0.00346597 0.000572119 0.0334606 0.00662888 0.0308176 0.0185312 0.0251015 0.025418 0.0164526 0.0149261 0.0309646 0.00734247 0.00178617 -0.0109996 0.0061466 0.014123 0.0176439 0.00404908 0.0134356 0.0123317 0.00924147 0.00948299 -0.0192561 -0.0231369 -0.038941 -0.00328122 -0.020323 -0.0214676 0.00723688 0.0157278 -0.000110794 0.0281878 0.0287773 0.023748 0.0245199 0.021467 -0.0152022 -0.00229598 0.0249868 0.0139988 0.00326074 -0.0197158 0.0033111 0.00136312 0.0169231 0.0097546 0.00588957 0.0158282 0.011614 0.00157493 -0.0137968 -0.00524779 0.00616388 -0.020727 0.0066103 0.00673888 0.00734827 0.0172361 0.00261523 0.00507745 0.00746123 0.000926415 0.0103567 0.00131905 -0.0168312 -0.00377546 0.0185588 0.0152476 0.0274776 0.0487924 0.014702 0.00949087 0.00993769 0.0103067 0.00570552 0.00680982 0.00294924 0.0122258 0.000422506 -0.00189418 -0.00922046 -0.0028455 0.00190394 0.00759852 0.0094145 0.0128221 0.0254379 -0.00478597 -0.00346164 -0.0264317 -0.00167836 0.00316541 0.0388279 0.0436632 0.0268864 0.0352782 0.018278 0.0362248 0.000628523 0.00586252 0.00165644 0.0174847 0.0093865 0.0132515 0.00645129 0.00150608 0.00305154 -0.00514961 -0.0160413 -0.00531273 0.0107488 0.0123809 0.0109041 0.0118553 -0.012288 -0.00172889 -0.0190174 -0.0045653 -0.00658191 -0.00552893 0.0230632 0.0496472 0.032515 0.0113905 0.00924272 0.0170161 0.0125497 0.00146787 0.00147239 0.00404908 0.0163804 0.0163804 0.00571371 0.0141993 0.0235245 -0.00871623 -0.0260383 -0.0110601 -0.0011287 0.00878833 -0.0109556 -0.000656429 -0.00842267 -0.00801205 -0.0191378 -0.000328656 0.00554847 0.0382156 0.0378273 0.0337573 -0.00392349 -0.0233952 0.00018732 -0.0100922 0.00338848 0.00351848 0.00865031 0.0110429 0.0123313 0.0121472 0.0066349 4.62011e-05 0.0149211 -0.00104456 -0.0156236 -0.0217815 0.000643468 0.0149849 -0.0127332 -0.0438847 -0.0360618 -0.00393855 0.00297733 -0.0167474 0.00192902 0.0252202 0.0445676 0.0139218 -0.0288542 -0.0161843 -0.0158429 -0.0328309 0.00435274 0.00429524 0.011411 0.0097546 0.0123313 0.00147239 0.0152808 0.0158974 0.0212297 -0.00644008 -0.0188784 -0.00662497 0.0191428 -0.0117935 -0.0277053 -0.0425675 -0.0363603 -0.0120135 -0.00711216 -0.0199056 1.25778e-06 0.023848 0.0245702 -0.00847017 -0.0301688 -0.0250951 -0.0135837 -0.0193059 0.016558 0.0166792 0.0081097 0.00570552 0.014908 0.0149087 0.0141898 0.0136279 0.00178238 -0.0168326 -0.00351042 -0.0188596 -0.00931206 -0.0303753 -0.0377099 -0.0341965 -0.0330104 -0.00406871 -0.0121886 -0.0139778 -0.00216943 0.0150256 0.0105097 0.0129583 0.018285 0.00832777 -0.0131641 -0.0353232 0.00245343 0.0100222 0.0081256 0.0176687 0.0182215 0.00737699 0.0015248 0.0160405 -0.0188073 -0.00974151 -0.0107169 -0.00659443 -0.0190684 -0.0177897 -0.0279082 -0.0818625 -0.0518291 -0.0108994 -0.0115096 0.00340535 0.0287037 0.0228057 0.029062 0.0439152 0.0422479 0.0318692 -0.000967972 -0.0271555 0.0103582 0.0115286 0.0094501 0.00920245 0.0151006 0.00132936 0.00902902 0.00607071 0.00947916 -0.00098552 -0.0113406 -0.00247532 -0.0147612 -0.0130376 -0.0545201 -0.0779759 -0.0694351 -0.0382526 -0.016362 0.0106325 0.0120736 0.0332829 0.0302159 0.0345662 0.0291788 0.0366257 0.0043525 -0.0223977 0.0102062 0.00055848 0.0033716 0.00588957 0.0169488 0.0133955 0.0115918 0.000130834 0.00244604 0.00150235 -0.0116318 -0.0193489 -0.00572991 -0.0163174 -0.0668178 -0.0848992 -0.0789701 -0.0696454 -0.0345167 -0.0393698 0.00246202 0.0146965 0.0291373 0.0284081 0.0276069 0.0342768 0.0188035 0.0109916 0.010993 0.0118977 0.0140469 0.00809816 0.0109136 0.0140772 0.0137115 0.00456688 -0.0125479 -0.00685679 -0.0117745 -0.0011536 -0.0153353 -0.0407557 -0.0499591 -0.080883 -0.0776271 -0.0678838 -0.0362865 -0.016047 -0.0300748 -0.0226129 0.00213887 0.0249767 0.0235645 0.0063224 0.00735056 0.00449414 0.00443143 0.0186619 0.00291521 0.0158305 0.00183948 0.00096797 0.00713471 0.00563344 -0.0129919 -0.00713329 -0.00850218 -0.0242837 -0.0242542 -0.0188245 -0.0621062 -0.0800034 -0.0781535 -0.0695495 -0.0467717 -0.0352742 -0.00959653 -0.0127898 0.0153421 0.0128612 0.0152323 0.0236015 0.0202165 0.0115048 0.0158751 0.0190685 0.0128483 0.0108838 0.0158988 -0.00176828 0.0057074 0.0133152 -0.028901 -0.0305372 -0.0408056 -0.0243152 -0.00742512 -0.0323058 -0.0562898 -0.0698745 -0.0821887 -0.0668848 -0.0445425 -0.0398624 -0.0403531 -0.0194981 -0.0129023 0.0148814 0.0492261 0.0267621 0.0236822 0.0257677 0.0140579 0.00584342 0.00290798 0.0120687 0.000278637 0.00241648 0.00752865 0.00934903 -0.00827759 -0.0341345 -0.0332581 -0.0274855 -0.036711 -0.02847 -0.0471067 -0.0596589 -0.0748389 -0.0551655 -0.0519481 -0.0363258 -0.0517432 -0.019065 -0.0100434 0.0193013 0.0168347 -0.00502988 0.00558667 0.00721555 0.00742277 0.00444303 0.00301299 0.0136748 0.0173205 0.00959162 0.00861208 0.00883226 0.00803321 0.0160896 0.0180308 0.00580338 0.01034 0.00132579 0.0130779 0.00559486 0.00655633 0.00361842 0.00293398 0.00477451 0.0177708 0.0164199 0.0161717 0.0123301 0.0039422 0.00505627 0.0124679 0.00603301 0.00641551 0.0126756 0.00892839 0.0123778 0.0136234 0.00961814 0.00513583 0.00647142 0.0117835 0.018006 0.0019752 0.000944666 0.00279198 0.00247948 0.00381222 0.0111413 0.0133175 0.00522648 0.00891197 0.0156323 0.0054033 0.000922278 0.00281372 0.0119107 0.0166819 0.000619569 0.00906838 0.00934213 0.0155859 0.0170065 0.0153802 0.0174839 0.0112366 0.000609103 0.0119794 0.00190423 0.0137305 0.015695 0.00601952 0.0120799 0.0181653 0.00591974 0.0183331 0.00280398 0.0149897 0.0056423 0.0120832 0.0130213 0.0100286 0.00961138 0.00956848 0.00819103 0.017745 0.0143163 0.00960046 0.00167962 0.0139117 0.00930416 0.00332825 0.014516 0.0171172 0.0079198 0.0121518 0.0090352 0.0103899 0.00546068 0.0166437 0.00444893 0.0110474 0.0141543 0.0101856 0.00920973 0.00776091 0.000982314 0.00968707 0.0137865 0.013345 0.0144116 0.00380545 0.00990778 0.00826808 0.00110298 0.0145578 5.03938e-05 0.00362123 0.00770725 0.00895271 0.0165716 0.0174847 0.00773006 0.00312883 0.0143558 0.0158282 0.0143558 0.00441718 0.00423313 0.0145399 0.000552147 0.0126994 0.00257669 0.0152761 0.0104908 0.0182209 0.0165644 0.0167485 0.00404908 0.0180368 0.0165644 0.00349693 0.011411 0.00349693 0.0141718 0.000184049 0.00165644 0.0125153 0 0.0136196 0.00184049 0.00239264 0.0115951 0.0156441 0.00828219 0.0060736 0.00681017 0.00386549 0.0182209 0.0104908 0.0134356 0.0108589 0.00533742 0.014004 0.0157495 0.0134881 0.0179952 0.00294479 0.0073619 0.00570485 0.012697 0.0115927 0.0171159 0.0139877 0.0106748 0.0119632 0.00312883 0.0106748 0.0169325 0.0097077 0.0135305 0.0102074 0.0104702 0.01012 0.00515425 0.0180405 0.00938467 0.00588523 0.00330974 0.00643784 0.00287661 0.010381 0.00900773 0.00188797 0.0180394 0.000915695 0.00698716 0.00679839 0.00237057 0.00550268 0.0147115 0.00864516 0.0101218 0.00312835 0.0143558 0.00699387 0.00110229 0.00490073 0.00559916 0.00550618 0.00991055 0.0155237 0.0130386 0.00215902 0.0143104 0.0157749 0.00220923 0.0149892 0.000270882 -0.00137727 -0.00488069 0.010524 0.0113462 0.00558494 0.00575553 0.00890004 0.0147909 0.00527336 0.00249448 0.0155318 0.00156738 0.00733776 0.00239135 0.0158282 0.0180195 0.0156632 -0.00336781 -0.0141203 -0.0103112 -0.00366152 -0.00727621 0.0173153 0.0156729 -0.0198066 0.0103296 0.0463963 0.0207988 0.00694001 0.0103643 0.00969981 0.00034915 0.00527837 0.0108668 -0.00819833 -0.0239672 -0.0253602 -0.0207159 0.0097416 0.00573974 0.0148161 0.0036711 0.00865031 0.0055025 0.012896 0.00704527 -0.0208097 -0.0126234 0.00302452 0.0153482 -0.00822338 0.00741503 -0.0198176 0.0229632 0.0291872 0.0249579 -0.0042985 -0.0130629 -0.0101754 -0.0252395 -0.00851053 -0.0265164 -0.0212706 -0.0214045 -0.0321622 -0.0246218 0.017745 0.0024819 0.0110093 0.0132486 0.00809816 0.0158061 0.00788319 0.00647171 -0.00874911 -0.0234057 -0.0130314 -0.00411183 -8.70243e-05 0.0332854 0.00809955 0.00284383 0.0366162 0.00352064 0.00305735 -0.00336705 -0.00377727 -0.0229802 -0.0188129 -0.0254595 -0.00142166 -0.00982728 -0.0111294 -0.0271764 0.0115689 0.00679335 -7.86405e-06 0.00165613 0.0103067 0.00349346 0.0165699 0.0109247 -0.034685 -0.0278638 -0.0414397 -0.00351582 0.0127721 0.000608407 -0.0104916 0.00840764 0.0169544 -0.00408252 0.00602074 -0.00480094 -0.00511152 -0.00418596 0.0193519 -0.00348694 -0.0379812 -0.0265594 -0.0436489 -0.0231254 0.00713865 0.0018309 0.0143518 0.00680978 0.00165644 0.0126993 0.0136131 0.0127026 -0.0229696 -0.00919936 -0.00742193 -0.0110616 0.0145394 -0.00132022 -0.00214698 -0.00425144 0.0138814 0.037289 -0.0013755 -0.0118979 -0.00703574 -0.0275116 -0.0230814 -0.00623965 -0.0372452 -0.0483315 -0.0338337 -0.0364982 0.00363345 0.000732768 0.0119606 0.00423313 0.00239264 0.0136196 0.00967708 0.0108512 -0.0244144 -0.00776879 -0.0142301 0.00208039 0.00467407 -0.0133119 -0.0211597 0.0115768 0.000748589 0.0274185 -0.0113572 -0.0182661 -0.00845333 -0.0046957 -0.00860281 -0.0334466 -0.0492899 -0.0794858 -0.0735009 -0.052724 0.0019863 0.00348927 0.00147142 0.00625767 0.015092 0.00515337 0.00510741 0.0157596 0.00818553 -0.000181133 0.0216446 0.00988339 -0.00573319 -0.00278701 0.000268974 -0.0146928 0.0093015 -0.00626949 -0.0127414 -0.0259492 0.0367736 0.0245198 -0.0275366 -0.0708046 -0.0880976 -0.107472 -0.12652 -0.0847928 0.00383219 0.00404303 0.0176686 0.00607362 0.00570552 0.00883436 0.00658382 0.00388587 -0.0263132 -0.00743294 -0.0251265 -0.00594925 -0.00305851 0.0325377 0.0127188 0.0205624 0.0171339 -0.00371711 -0.00652305 -0.000397799 0.012855 -0.0510912 -0.087839 -0.118172 -0.161392 -0.138355 -0.146144 -0.0902214 0.00863545 0.0101202 0.00957055 0.00312883 0.0169325 0.00736196 0.00749613 0.00397786 -0.00583461 -0.0473905 -0.0441139 -0.00773106 -0.00769505 -0.0127583 0.00382608 -0.0264797 -0.00935791 0.00601823 0.0333848 -0.0160743 -0.0194073 -0.0630523 -0.133008 -0.147614 -0.138245 -0.12615 -0.130637 -0.0756017 0.00219188 0.00386377 0.011411 0.00312883 0.00828221 0.0125153 0.00749139 0.0107318 -0.0245838 -0.0421642 -0.0317559 -0.0158675 -0.010481 -0.0261826 -0.0260128 -0.0316324 0.00278429 0.0191011 0.00215435 -0.0463977 -0.068868 -0.0986863 -0.12721 -0.115726 -0.106242 -0.0980706 -0.0836783 -0.0691447 0.0136082 0.000367257 0.0154601 0.0178528 0.00717791 0.00883436 0.00952541 0.0172801 0.0129861 -0.0176606 -0.00143837 -0.00144064 0.00151459 -0.0138283 0.00603577 -0.00979863 -0.016507 -0.0477958 -0.0733074 -0.0696848 -0.0866756 -0.10305 -0.0875227 -0.0536462 -0.0080459 0.0436252 0.0381538 0.0180064 0.010296 0.00183741 0.00184049 0.00993865 0.00957055 0.000920245 0.0135931 0.00682289 -0.0098562 0.00978779 0.00935881 -0.00519257 0.0146433 -0.0128182 -0.00277876 -0.00407125 -0.0281708 -0.054586 -0.0677555 -0.071315 -0.0351291 -0.0479825 -0.00989538 0.0308489 0.0701341 0.061441 0.0692608 0.0501477 0.00127525 0.0174804 0.0112266 0.00957055 0.0097546 0.00368384 0.00405413 0.0060741 0.0391484 0.00909233 -0.0141287 -0.000758419 0.0355975 0.0333648 0.0155768 0.0127563 -0.0258639 -0.0397069 -0.0270422 0.00869167 0.0431293 0.0414145 0.0661273 0.0537823 0.0548833 0.0836639 0.0860636 0.0300066 0.010838 0.00404602 0.0029434 0.00312883 0.00810101 0.00557705 0.00639759 0.0174037 0.0233517 0.0187766 -0.00326427 0.0139 0.00241027 -0.00902605 0.0151392 -0.00132729 -0.0148833 -0.00392366 0.00283235 0.0355084 0.0586426 0.032237 0.059618 0.0395868 0.0260997 0.0608044 0.0496955 0.0112837 0.00438455 0.0047815 0.013617 0.00607362 0.0173293 0.00199189 0.010123 0.00171256 0.00409248 0.017119 0.0308206 0.015256 0.0204465 0.0126474 0.013575 0.00677846 -0.0142734 0.00412041 0.0109174 -0.00604002 0.0135405 -0.00356021 0.00979963 0.0166295 0.00423163 0.0142547 0.00872479 0.0201099 0.00695639 0.00348896 0.0139848 0.00110429 0.0159014 0.0068072 0.00903081 0.00917065 -0.0162883 0.0172731 0.0371586 0.0394464 0.0421774 0.032104 0.0207234 0.00472245 -0.00682654 -0.00941148 -0.00054149 -0.0131698 -0.0319258 -0.033436 -0.0165227 -0.0135229 0.00303992 -0.00864605 0.0292226 0.00779214 0.0106333 0.00604994 0.00809501 0.0141718 0.00737254 0.00661466 0.00834584 0.00649965 0.00101105 -0.00109681 0.0179995 0.0256946 0.0296092 0.0460351 0.0364521 0.035533 0.0208256 -0.00717153 0.0240904 -0.0229275 -0.0130074 -0.0237276 -0.00193605 0.00119553 -0.00876325 0.00690586 -0.0249672 -0.0312324 0.00991662 0.0150799 0.0075405 0.00478513 0.00754727 0.0165011 0.00481243 0.00131998 0.0175391 -0.00159879 -0.00430057 -0.00200107 0.0299848 0.00593539 0.0185683 0.00493328 0.0120745 0.00885219 -0.0157256 0.00436465 -0.00275093 -0.0104279 0.0122219 -0.00403151 -0.0285039 -0.0388554 -0.0413156 -0.0114482 0.0171716 0.00896384 0.0134141 0.00736092 0.00772724 0.000116135 0.0122417 0.00162317 0.0056464 0.0352211 0.00327683 -0.0106504 -0.0321129 -0.0100469 0.0222106 0.0245356 0.00987204 0.0284859 0.0291385 -0.0120365 -0.00334502 -0.00303683 -0.0306262 -0.0529614 -0.0413152 -0.0330014 -0.0341238 -0.0221492 0.00841309 0.0147121 0.000918815 0.00735349 0.00404703 0.00765385 0.00799956 0.00731547 0.00324976 -0.000943552 -0.0213098 -0.0308037 -0.0211949 -0.0110779 0.0126864 0.00238631 0.0240403 0.0186961 0.0148664 -0.012895 -0.0328715 -0.0446282 0.00389567 -0.0146555 -0.0100505 -0.00785592 -0.00411459 -0.000765958 0.0148931 0.00799914 0.0168923 0.00366778 0.00646119 0.0135953 0.000472602 0.00731771 0.0144326 0.0140485 0.0111555 0.00607862 0.00611524 0.00492809 0.000859149 0.00583938 0.00223967 0.00486237 0.0129654 0.0167703 0.0150616 0.0133887 0.00603274 0.0124507 0.0047411 0.0152773 0.0138672 0.00570651 0.00664844 0.016522 0.00474573 0.0040399 0.0178631 0.0131134 0.00412163 0.0169389 0.0157901 -0.00223728 0.000412658 0.0181547 0.0197835 0.00517179 0.0134312 0.00611156 0.00319668 -0.00292065 -0.00599924 0.00500899 0.0141224 0.0103514 0.0156519 -4.2592e-05 0.00693142 -0.000816449 0.00521774 0.00829135 0.000495474 0.00298047 0.00600009 0.0180366 0.00497855 0.0162211 0.0101351 0.00837798 0.0015261 0.0149891 0.00132305 0.00508597 0.0122735 0.00642467 0.00295311 0.0123312 -0.000440685 -0.00595753 0.00336872 -0.00300595 -0.00359126 0.0139785 4.48692e-05 0.0154341 0.0135762 0.0124197 0.00863975 0.00859289 0.00166974 0.00957901 0.00217153 0.00293924 0.0171173 0.0106805 0.0147271 0.0120895 0.00580393 0.00648422 0.00798272 0.00177647 0.00776918 0.0178576 0.008347 0.0079033 0.00490328 0.0115315 0.00570774 -0.00445175 0.0042733 